13 200
沙隆达股份 -0.001275 0.001758 -0.002474 0.001772 0.000183 -0.000785 0.001416 0.001264 0.002048 -0.001101 -0.000894 0.001649 -0.001289 0.002202 0.001505 -0.000032 -0.000980 -0.000848 0.000477 0.001674 0.000813 0.001570 0.000248 -0.000760 0.000310 0.001309 0.001047 0.002102 0.002223 0.002388 -0.002118 -0.001639 0.000502 0.002141 0.002136 -0.002265 0.001821 -0.001100 -0.001822 -0.002291 -0.000482 0.002239 0.000591 -0.000974 -0.001390 -0.001901 0.000879 -0.001465 -0.001484 -0.000595 0.000041 -0.000100 0.002429 0.000489 -0.000919 0.001180 -0.001371 -0.000023 -0.002309 0.002071 -0.000532 -0.001157 0.002105 0.000430 0.000961 0.002046 0.001461 0.000336 -0.002026 0.001353 -0.000938 0.000369 0.002041 -0.000045 -0.001346 0.002245 0.000143 -0.000043 0.001612 0.002069 0.000951 -0.002184 0.001140 -0.000678 0.002373 -0.000689 -0.001983 0.002278 -0.002185 -0.001142 -0.000075 0.000209 -0.002360 0.002255 -0.000010 -0.002455 -0.001085 -0.000318 -0.001167 -0.002101 0.000662 0.000803 -0.001394 0.000263 -0.000165 0.002308 -0.000590 0.001024 -0.000912 -0.001093 0.002021 -0.000999 0.000521 0.000121 0.001533 0.001903 0.002451 -0.001087 0.002490 -0.002399 0.000179 -0.001910 -0.000576 0.000290 0.000932 -0.000841 0.001906 0.001519 -0.001134 0.001849 -0.001816 -0.001793 -0.000218 0.000031 -0.000296 0.002038 0.002028 0.001839 0.001516 -0.002488 -0.002491 0.001086 -0.002374 0.002094 -0.002394 -0.000459 0.001663 0.002467 -0.001522 0.001284 -0.001358 0.000322 0.002073 -0.001695 -0.001329 -0.002252 -0.001855 -0.001209 0.001940 0.002352 0.001635 0.002471 0.002501 -0.000351 0.001646 0.001341 0.000345 0.002190 -0.000013 0.001806 -0.002426 0.000626 -0.000928 0.001828 0.001384 -0.001403 -0.001585 -0.002168 0.000240 0.000114 0.001726 -0.001923 -0.000195 -0.001022 -0.000208 -0.000834 0.000499 -0.002051 0.001655 0.001713 -0.001552 -0.002409 -0.000763 0.001903 0.000445 0.001835 -0.000798 -0.001459 0.001913 -0.001617
年 -0.001624 -0.002165 -0.000957 0.001044 -0.000377 0.001619 -0.000383 0.001222 -0.001008 -0.001017 -0.001466 -0.001171 -0.001686 0.001876 0.001587 0.000009 -0.000518 0.000863 0.002345 0.002144 0.002406 0.001175 0.000383 0.001297 0.001113 0.002376 0.002255 -0.000595 -0.002352 -0.001583 0.000740 -0.000404 0.000216 0.000254 -0.002058 -0.000752 -0.001470 0.000810 0.001202 0.000470 -0.000300 -0.000591 -0.001164 -0.000292 0.001420 0.001430 -0.002304 0.002271 -0.000355 -0.001305 -0.001853 -0.000723 -0.002166 -0.000785 -0.001091 -0.001684 -0.000332 0.001007 -0.000819 0.002358 0.001316 0.000518 0.000944 -0.002202 -0.000181 0.002292 0.000441 -0.002307 -0.001581 0.001940 -0.002099 0.000328 0.002138 -0.001444 0.000117 -0.001190 0.000044 0.000347 0.001860 0.000942 0.002118 -0.001300 -0.001077 0.000305 0.000698 -0.001035 0.001256 -0.001608 0.001116 -0.001629 0.000469 -0.002465 -0.000459 -0.002108 0.001011 -0.002436 0.000224 0.002159 -0.000808 0.000544 0.000166 -0.000619 -0.001820 -0.000709 0.002126 -0.000371 0.001183 -0.002446 0.002103 -0.000299 -0.000744 -0.001696 0.000310 0.000247 -0.001012 -0.000156 -0.000182 0.000298 0.002406 -0.001714 0.002027 -0.002161 0.000193 0.002384 -0.002235 0.001494 0.002308 -0.000854 0.001265 -0.000864 -0.002322 -0.002479 0.001932 -0.001031 -0.001217 0.002125 0.001401 0.000623 0.000383 -0.001933 0.001754 0.000420 0.001236 -0.000799 0.002312 -0.002449 0.001569 0.000268 0.000012 0.001810 0.000018 -0.001935 0.000404 -0.001979 -0.002124 0.000009 0.001094 -0.000175 -0.001056 0.001092 0.000726 -0.000299 -0.001965 -0.000265 0.002412 -0.001107 0.001157 0.002201 -0.002141 0.000173 0.002195 0.002357 -0.000346 -0.001308 0.000187 0.000242 0.001970 -0.001338 -0.002292 0.001112 0.000975 -0.002453 -0.000171 0.000190 0.001550 0.002495 -0.001921 -0.000540 -0.000787 0.000959 0.002406 -0.001318 0.000696 0.002160 0.000338 0.000107 0.001176 -0.002197 0.001865 0.000500
中国 -0.001785 -0.001947 0.001036 -0.000323 -0.001537 0.000377 0.001597 0.001734 0.000945 -0.001072 0.000867 0.001327 0.001366 -0.000557 -0.001128 -0.000875 -0.000110 0.000034 -0.000694 -0.002117 0.000724 -0.001574 -0.002423 -0.002264 -0.001843 -0.002392 -0.000312 -0.000458 -0.000388 0.001287 -0.001783 0.001471 -0.000679 0.000375 0.000074 -0.000827 -0.001470 -0.001138 -0.002330 0.001846 0.000568 -0.000812 -0.000553 0.001365 0.001387 0.002300 -0.000792 0.002335 0.000343 0.001333 -0.001447 -0.000936 0.001810 0.001606 0.001518 0.002188 -0.000680 0.001265 0.000976 -0.001375 -0.000702 -0.001129 0.000666 -0.001616 0.000093 -0.001708 -0.000365 0.000277 0.001837 0.001168 -0.001011 -0.000201 0.001248 -0.000875 0.000608 -0.001756 -0.001429 0.000184 0.000043 0.000748 0.000135 0.000924 0.001566 -0.000789 -0.000191 -0.002076 -0.000710 0.000150 0.002367 0.001747 0.001798 0.000498 0.001440 -0.000779 -0.001695 -0.002456 0.002258 0.002288 0.002274 -0.001264 -0.001452 -0.000808 0.000712 0.002140 0.000826 -0.000527 0.000980 -0.001201 -0.002166 -0.000626 0.000898 -0.001083 0.001058 0.001391 0.000176 0.001351 -0.000849 0.001915 -0.001741 0.000767 0.000027 -0.001539 -0.001698 0.002469 -0.002091 -0.001935 0.001767 0.001554 0.002244 0.002375 0.002088 0.001040 -0.000795 0.002453 0.000200 0.000852 0.002341 0.000411 -0.001449 -0.000180 -0.002186 0.000308 0.000940 -0.000914 -0.001780 -0.000535 0.001948 -0.002079 -0.000003 -0.000275 -0.001708 0.000987 -0.001111 0.001521 -0.002043 -0.001890 -0.001284 0.001003 0.002245 -0.001967 0.002102 0.002276 0.000821 0.002182 0.000319 -0.001180 -0.002338 -0.001599 0.000841 -0.000192 0.000118 -0.000836 0.002025 0.000814 0.002305 -0.001113 -0.000698 0.001151 0.002322 -0.000833 0.001807 0.001764 0.000843 -0.002427 0.000420 0.001514 -0.002067 0.000506 0.000068 0.002234 0.001615 0.001757 -0.001499 0.000278 0.002263 -0.001050 -0.002261 0.001258 0.000579 0.001495
沙隆达 -0.001574 0.001913 0.001436 -0.001585 -0.000513 -0.002480 0.002311 -0.002494 0.001461 0.000331 0.001617 0.000410 0.000364 -0.001259 0.001938 0.001327 0.001330 0.001397 -0.001641 0.000468 0.000539 -0.002488 0.000820 -0.001782 0.000300 0.002200 0.000753 0.001581 0.000911 0.000009 -0.001563 -0.002176 0.002025 0.001769 -0.000835 0.000561 0.001222 0.000153 -0.000037 0.000442 -0.001738 -0.000242 0.001732 -0.002400 0.001041 -0.000445 -0.000237 -0.001554 -0.000617 0.002144 -0.000948 -0.001587 -0.000043 -0.001274 -0.000980 0.000502 0.000224 -0.000562 0.001561 0.001380 0.002052 0.000759 0.001059 0.000435 0.000996 0.000226 -0.001925 -0.000872 0.001665 0.001491 0.000526 0.002436 -0.001599 -0.001907 -0.000756 -0.001107 0.001173 -0.002205 -0.001209 -0.001089 -0.002061 0.000294 0.001883 -0.001443 -0.000020 0.002263 -0.001457 0.000842 0.002003 -0.001941 0.000342 0.000429 -0.000551 -0.001627 0.000002 -0.002375 -0.000888 0.001759 0.002026 -0.002433 0.001059 -0.000347 -0.002035 -0.001176 0.001549 -0.000255 0.000665 -0.001000 -0.002259 -0.000762 0.002082 -0.002309 0.001772 -0.001206 -0.002369 -0.001979 -0.000528 -0.000436 0.002065 -0.001858 -0.000438 -0.001464 0.002249 0.001008 -0.000493 -0.000856 -0.000750 0.000010 0.001761 -0.002341 0.000760 0.000012 -0.002161 -0.000637 -0.002232 0.000150 -0.000436 -0.002474 0.001628 -0.002252 -0.000919 -0.000349 0.000555 -0.002308 0.000831 0.001042 -0.001008 -0.000807 -0.001849 0.000217 -0.001581 -0.000378 0.002307 -0.002141 -0.001767 0.001097 0.001823 -0.002079 -0.000346 -0.001571 -0.000807 -0.001299 0.000653 -0.001145 0.001981 -0.002394 -0.001729 -0.001286 -0.001107 0.001827 -0.001246 0.000827 0.001764 0.002069 0.002258 0.001961 0.000226 -0.000592 0.002017 0.000825 0.001821 0.002470 0.001943 0.000810 0.001366 0.000239 -0.002049 -0.000881 -0.002084 0.000017 0.001871 0.002106 -0.000069 -0.002018 -0.002366 -0.001131 0.001298 -0.001258 0.001380 0.002190
湖北 0.000310 0.001393 0.002453 -0.000004 0.000899 0.001480 -0.001205 0.000669 0.001987 -0.001809 -0.000347 -0.001869 0.000990 0.000619 0.002084 -0.002300 0.000285 0.000178 0.001651 -0.000948 0.000277 -0.002377 -0.000681 -0.001674 0.001926 -0.000226 -0.001628 -0.001413 0.000177 -0.002223 -0.001163 0.000527 -0.001907 -0.000925 0.001755 -0.001380 -0.001150 -0.000283 0.001283 0.001319 0.000901 0.000193 -0.002277 -0.000724 0.000584 0.001569 0.001519 0.001926 0.001543 -0.002444 -0.000417 -0.000506 -0.000556 0.002268 0.001716 -0.001642 -0.001680 -0.000259 0.001987 0.000272 0.001522 0.001347 -0.001327 0.000395 0.000282 -0.000210 -0.001255 0.002399 -0.000174 0.001912 -0.002353 -0.001208 0.000504 -0.001072 0.002274 -0.002396 -0.001984 0.000293 -0.001881 0.000069 0.000181 -0.000881 0.001928 0.000954 0.002415 -0.000793 0.002417 0.000593 -0.000424 -0.000191 -0.000346 -0.002163 0.000964 0.001047 0.000628 -0.000393 -0.000122 -0.000845 -0.000346 0.002272 0.001231 0.002092 0.002491 -0.000721 -0.000194 0.001108 0.001041 0.000655 -0.001419 -0.002461 -0.000014 -0.002398 0.002459 0.002072 0.002372 0.000097 -0.001501 0.001496 -0.001785 -0.000792 0.001369 0.001085 -0.000464 -0.002138 -0.000116 -0.001259 0.000228 -0.001381 -0.000311 0.000143 0.001333 -0.000195 0.000917 0.002397 0.001662 0.001888 -0.002477 0.000844 -0.000038 0.000137 -0.001145 -0.002155 -0.001871 0.000130 -0.001773 -0.002071 -0.002467 -0.000039 -0.001097 -0.002461 -0.002185 -0.002361 -0.001149 -0.000566 -0.000539 0.000917 -0.000362 -0.001598 -0.002492 -0.002439 0.002151 -0.002180 0.001031 -0.001286 -0.000827 0.000589 0.002103 -0.001512 -0.001769 -0.001439 0.000491 0.000771 -0.002131 -0.002301 0.000546 -0.000441 0.001006 -0.001442 0.002017 0.001467 -0.001696 -0.001010 -0.001443 -0.002362 0.001823 0.002469 0.001101 -0.001125 0.001043 -0.001186 0.002038 -0.000294 -0.002322 0.002043 -0.002041 0.001396 -0.001612 0.002310 0.000677 0.001317
一间 -0.000722 0.001584 -0.001708 0.000077 -0.001376 -0.001791 0.001121 -0.001275 -0.001089 -0.001882 0.000129 -0.001034 -0.001832 0.001334 -0.000768 -0.001356 -0.001928 -0.001369 -0.001948 0.002204 0.000849 0.001886 -0.002223 0.001015 -0.000882 0.001014 0.002394 -0.002254 -0.002233 -0.000970 0.002336 -0.001578 0.002282 0.001497 0.001643 0.001668 -0.001559 0.000863 0.000151 -0.000476 0.001571 -0.001031 -0.002214 -0.000199 -0.001422 -0.000775 -0.000963 0.001433 0.002363 -0.002421 0.001230 0.001465 -0.002325 -0.000152 -0.002382 -0.000800 -0.000639 -0.000254 -0.001595 -0.001365 0.001337 -0.000187 0.000472 -0.001075 -0.001749 0.002428 0.001459 -0.000827 -0.000529 0.002199 -0.000432 -0.001158 -0.001978 -0.002407 -0.001550 -0.002017 0.002250 0.002212 0.002399 -0.002179 -0.001574 -0.001792 0.001611 -0.001601 -0.000125 -0.000828 0.000889 -0.000597 -0.000496 0.000247 0.001503 -0.002140 -0.000139 0.000747 0.001866 0.002385 -0.000482 0.002168 0.000635 0.000233 0.001525 0.000109 0.001693 -0.000997 0.002304 -0.001120 -0.002248 -0.000806 0.002417 -0.000376 0.002002 -0.002091 -0.002265 -0.000184 0.002204 -0.000277 -0.000301 -0.001378 -0.000017 0.001563 0.000207 0.000329 0.001624 -0.000250 -0.001472 -0.002320 0.000447 0.000782 -0.001030 -0.001216 0.002142 0.000849 0.001952 0.002088 0.002006 0.002297 -0.001738 -0.002379 0.001133 0.000928 0.002461 -0.001057 0.000934 0.001227 -0.002150 -0.002263 -0.002310 -0.000690 -0.000195 -0.001724 0.002344 -0.001166 0.000839 -0.000731 -0.002253 -0.000744 0.001477 -0.002045 -0.002153 -0.002419 -0.000292 -0.000372 0.002390 0.002313 0.002190 0.001440 -0.000623 0.000803 -0.001451 0.000123 -0.000171 0.001209 -0.001134 -0.001693 -0.000931 -0.002031 0.001228 -0.000127 -0.000962 0.001419 0.002029 -0.001196 0.000631 0.000439 0.001514 0.002235 0.000150 -0.001683 -0.002124 0.000640 0.001718 -0.001081 -0.002368 0.000306 -0.001398 0.001675 0.000716 -0.002354 0.002238 -0.000731
控股 0.000630 -0.001414 -0.001400 -0.000587 -0.001961 -0.001889 0.000705 -0.002077 0.000588 -0.001517 0.001593 -0.002054 -0.000888 -0.001329 0.000368 -0.001162 0.002490 0.001319 0.000700 -0.000883 -0.000760 -0.000979 -0.001824 0.002410 0.001208 0.000775 -0.000067 -0.001261 -0.002495 0.002047 0.002418 0.000586 -0.000568 -0.001556 -0.000406 -0.000062 0.001360 -0.000012 0.000988 0.002018 -0.000262 -0.001960 -0.001102 -0.000945 -0.001490 -0.000703 -0.002147 0.000778 -0.002123 0.000199 -0.000725 0.002315 -0.001955 -0.000120 0.000319 0.000382 -0.000982 0.001087 -0.002067 -0.001373 0.001135 -0.001560 0.001575 -0.001052 0.001352 0.001532 -0.001813 0.000698 0.001265 0.000083 0.000410 -0.002198 -0.001449 0.000909 -0.001230 0.000205 0.001614 -0.001658 0.002469 -0.000137 -0.002130 0.001354 -0.001406 0.001723 -0.001590 -0.002391 -0.000714 -0.002314 -0.001753 0.001433 0.001895 -0.001660 0.002173 -0.000618 -0.002086 -0.001063 -0.000850 0.000362 -0.002071 -0.000725 0.000017 -0.000551 -0.001810 0.001037 -0.001146 -0.001679 0.002135 0.002063 0.001088 0.001700 -0.000927 -0.001627 0.000962 0.001662 -0.001997 -0.001748 0.001349 0.001834 0.000569 0.001437 -0.002447 0.002067 0.001945 0.001298 0.001291 0.000844 0.001026 0.002390 0.002197 0.000811 0.002445 0.000765 -0.000286 0.001659 -0.000846 0.001810 0.002087 0.002479 0.001792 0.001822 -0.001705 -0.000807 0.001424 -0.002108 0.001153 0.002068 -0.000301 -0.000214 -0.000444 -0.002438 0.001028 0.001764 0.000657 0.001909 0.002086 -0.001999 0.002140 0.002246 0.000018 -0.002297 -0.002314 0.001374 0.002278 0.001291 -0.001688 -0.000866 -0.002163 -0.001012 0.002240 0.001236 0.002122 -0.000902 0.001983 -0.002406 0.000413 0.000077 -0.002446 0.000168 0.002472 -0.002432 -0.001605 -0.001207 -0.000766 0.002080 0.000377 0.001745 0.000209 -0.001268 0.001256 0.000778 0.001116 -0.000408 0.001437 -0.002073 0.001376 0.001179 -0.001505 -0.000530 0.001117 0.001913
化工集团 0.000322 0.001527 0.000816 0.001545 -0.001074 -0.001503 0.002286 -0.000732 0.002060 0.001338 0.000945 -0.002311 0.000569 -0.001854 -0.000950 0.000356 0.000420 -0.001075 -0.002040 -0.000511 0.002340 0.000841 0.001471 0.000582 -0.000242 0.002409 -0.001849 0.001684 -0.001571 0.000330 0.000381 0.001598 0.000205 0.002128 0.002074 0.001225 -0.000758 -0.001452 0.000117 0.001526 0.000628 0.000313 -0.001400 -0.001645 -0.002455 -0.000522 0.002391 -0.001968 -0.002074 -0.001225 0.001565 -0.001866 -0.001606 -0.002066 -0.001727 0.000726 0.001674 -0.001575 -0.001277 0.002064 -0.001707 -0.002248 0.001286 -0.000807 0.002276 0.000416 0.000585 0.000428 -0.001875 -0.001629 -0.001639 0.002391 -0.001939 0.000571 -0.002211 0.002356 -0.000454 -0.001806 -0.002460 -0.000160 -0.001479 0.002065 0.001588 0.001835 -0.001083 0.001351 -0.000126 -0.000270 -0.000067 -0.002035 0.002163 -0.001750 -0.000595 0.001340 -0.002387 0.001674 0.001582 0.000516 -0.000038 0.000755 0.000836 -0.001645 -0.000362 -0.000356 -0.002304 0.000039 0.001739 -0.000746 -0.000526 0.000570 -0.002457 -0.001827 -0.001792 0.001916 0.001398 -0.001021 -0.000495 -0.001899 0.001298 0.000625 -0.000710 -0.001096 -0.001401 0.001949 -0.001893 0.001425 0.001027 -0.001872 -0.002016 -0.000059 0.001639 0.001661 -0.000796 -0.001779 -0.002288 0.000914 0.001664 0.000461 -0.000652 -0.002096 0.001427 -0.000891 -0.001691 -0.001296 0.001806 0.002250 0.000995 0.001169 -0.001668 0.001569 0.000915 -0.001165 0.002401 -0.000305 0.002454 0.002464 0.000520 -0.000991 -0.000328 -0.001767 0.002182 0.002301 -0.002179 -0.002466 0.002221 -0.000629 0.001749 0.001605 -0.000160 -0.000160 0.000558 0.000247 -0.001628 -0.002460 -0.000715 -0.001145 -0.001191 -0.001726 -0.001778 0.000009 -0.000165 -0.000493 -0.001674 -0.001323 0.001377 0.001858 0.002092 -0.001118 0.001879 -0.000045 0.001100 0.002267 -0.001022 0.002298 0.002111 -0.001016 0.002347 0.000358 0.002255 -0.000927
湖北省 -0.002044 0.000676 -0.002179 -0.002474 -0.000207 0.001135 0.001980 0.001450 -0.001160 0.001921 0.002120 -0.000528 -0.001090 0.001865 -0.000483 -0.002119 0.000553 0.001081 -0.001892 -0.002356 -0.000797 0.000209 -0.000801 0.002000 0.001479 0.001249 0.000674 -0.000818 -0.001175 0.002262 0.001244 -0.000350 -0.002265 -0.000359 -0.002295 -0.000316 0.001519 0.000810 -0.000977 -0.000929 -0.000075 -0.000304 0.001464 -0.001298 0.001299 -0.000951 0.000848 -0.001137 0.000632 0.001264 -0.000327 -0.001570 -0.001201 0.002111 0.001851 0.002288 0.001070 0.001114 0.001191 -0.000356 -0.000967 0.001614 -0.001365 -0.000256 0.001022 -0.000604 -0.000580 0.001451 0.000047 -0.001861 0.000816 -0.001013 -0.000418 0.000946 0.002488 0.000890 -0.000672 -0.001796 -0.001464 -0.001484 -0.002498 0.002012 -0.001533 -0.002437 0.002436 0.002142 -0.000931 0.002261 -0.001137 -0.000984 -0.001023 -0.001415 -0.001760 0.001910 0.000771 -0.001711 0.001890 0.002071 -0.000488 0.000185 -0.001562 -0.001556 0.001225 0.001292 -0.001178 0.000777 0.000996 0.000405 -0.002300 0.002012 -0.001921 0.001907 -0.000994 -0.000851 -0.000555 0.001570 0.002312 0.001728 0.000010 0.000603 0.001903 0.001663 0.002391 -0.002162 -0.001145 0.002244 -0.002461 0.000546 -0.001832 0.001024 -0.000095 -0.001374 -0.001965 0.001167 -0.002478 -0.001028 -0.000824 -0.002351 0.001120 -0.001948 0.001903 -0.001484 0.001080 0.000186 -0.001814 0.000226 0.001326 0.000271 0.000741 0.000071 -0.000665 0.002425 0.001729 -0.001480 0.000364 0.000070 0.000281 0.000836 -0.001657 0.000736 -0.002107 -0.000599 0.000219 -0.001362 -0.002124 0.001488 0.001334 -0.001694 0.000593 -0.001610 -0.001593 -0.001995 -0.000322 0.002377 -0.000795 -0.001806 -0.000903 0.001453 -0.000845 0.002123 -0.000452 -0.000969 0.001717 -0.000839 -0.000155 0.002232 0.002112 0.002400 0.002356 -0.000130 0.000578 -0.001979 -0.002469 -0.001736 -0.002104 0.000237 0.000883 0.001988 0.000713 0.000322
沙市 -0.001157 -0.002356 0.002353 -0.001830 -0.000733 0.001623 -0.001778 -0.000822 0.000239 -0.001849 0.002110 0.000635 0.001010 0.000425 0.001801 -0.001738 -0.002476 0.000337 0.001096 0.001522 0.002487 -0.001434 0.000875 -0.001000 0.002212 -0.001474 -0.001534 -0.001870 0.001625 0.001428 -0.001014 0.001388 -0.002067 0.002401 -0.000692 -0.000225 0.000864 0.000092 -0.000842 -0.000288 -0.002223 0.001553 -0.001151 0.001717 0.001682 -0.000718 0.000550 0.000405 0.002233 -0.000735 -0.000157 -0.002371 0.002016 0.002310 -0.001366 -0.002098 -0.001481 -0.001926 0.001850 0.001944 0.002448 0.001910 -0.001528 0.001171 0.001092 -0.001451 0.001005 -0.002346 -0.001666 -0.001747 -0.001165 -0.001870 -0.000637 -0.000001 0.001974 -0.002107 -0.000384 0.000367 -0.001647 -0.000835 0.000408 0.002418 -0.000596 0.001222 -0.001778 0.002314 -0.001393 -0.001939 0.001840 -0.001420 0.000333 0.000162 -0.000589 0.000298 0.002356 0.000231 -0.001530 0.002314 0.002323 -0.002143 0.002033 -0.001138 -0.001520 0.001998 0.001463 0.002409 -0.001149 -0.000379 0.002370 0.001497 -0.000571 -0.000276 0.002414 -0.001703 0.000125 -0.002331 0.002152 0.002286 -0.000303 0.000101 0.001670 -0.000042 0.001972 -0.001806 0.001099 0.001281 0.000309 -0.001542 0.001191 -0.001948 -0.000019 -0.001754 0.001467 0.000865 0.001262 -0.000399 -0.001183 -0.000533 -0.001479 0.001491 -0.000736 0.001892 0.001359 -0.001081 -0.001326 0.000966 0.002158 -0.002035 -0.001671 0.001854 0.001207 0.000394 0.001466 0.000590 -0.001712 0.001866 0.002325 -0.000302 -0.001528 -0.000549 -0.001480 -0.001831 0.001830 -0.001375 0.000059 0.002051 0.001869 -0.002273 0.000541 0.000533 0.000654 -0.001424 -0.001621 -0.000134 -0.000706 -0.000460 -0.001219 -0.001183 -0.000943 -0.001201 -0.000451 0.001447 -0.000288 0.002390 0.000331 0.002168 0.001588 -0.000635 -0.000835 0.001072 0.000432 0.001117 -0.002108 0.000685 -0.000490 0.001715 -0.001947 -0.000190 0.002150 -0.002025
成立 0.000321 0.002367 0.002355 0.002305 0.000275 -0.002192 0.002328 -0.000026 0.002296 -0.002388 0.001571 0.002361 -0.001610 0.002238 -0.001025 -0.000460 0.001679 -0.000976 -0.002005 0.000706 0.000249 0.000170 -0.001437 0.002496 0.000905 0.001725 0.000217 0.001596 -0.000039 0.000680 0.001962 -0.000922 -0.002075 0.000871 0.001888 -0.002433 0.001210 0.002134 0.001008 -0.000109 0.001132 -0.000561 0.001473 -0.000329 -0.001127 -0.000885 0.002273 0.000281 -0.001755 0.001833 -0.000737 -0.001496 -0.001884 -0.002431 -0.002293 0.002241 0.001184 -0.001119 0.002463 0.001860 -0.000961 0.001517 0.002397 0.001147 0.000463 -0.002102 -0.002204 -0.000950 -0.000320 -0.002489 -0.001394 -0.000295 0.001412 0.000216 0.001383 0.001331 0.000619 0.000926 0.000110 0.001298 0.000991 -0.002194 -0.001502 -0.000075 0.000102 0.001490 -0.001552 -0.000631 -0.001684 0.000683 0.001506 0.001268 -0.002197 0.001871 -0.000130 0.000208 0.000255 0.001244 0.002127 0.002228 -0.001068 0.001246 -0.000134 0.002053 -0.000265 -0.000149 -0.002291 0.000812 0.002474 -0.001686 -0.000212 0.000264 0.001123 0.000893 -0.001801 -0.000974 -0.001525 -0.000507 -0.001286 -0.002297 0.000398 0.001704 -0.001629 -0.001813 -0.001291 0.000170 -0.000861 -0.000047 -0.001868 -0.002060 0.001176 0.001615 -0.000231 -0.000554 -0.002440 0.000127 -0.000202 0.002482 0.001429 0.001920 -0.000467 -0.002092 -0.000983 -0.000580 -0.002032 0.000140 -0.001242 0.001540 -0.000918 -0.001339 -0.002271 -0.000670 0.000014 0.001582 -0.001774 -0.001171 0.001463 -0.000333 -0.002301 -0.001068 -0.000444 -0.001069 -0.001321 -0.000233 -0.000761 -0.000990 -0.000880 -0.000474 -0.001035 -0.001579 0.001761 -0.002046 0.001628 0.001586 0.001915 0.001548 0.000374 0.002362 0.000149 -0.002460 0.002103 0.002472 0.000627 -0.002285 -0.001824 -0.001884 -0.002381 0.001633 0.001571 -0.001899 -0.000277 0.000059 -0.001686 -0.001957 0.001713 -0.001687 0.000949 -0.001533 -0.002054 -0.001052
出售 0.002156 0.002081 0.002003 -0.001783 0.000218 -0.001328 0.001191 0.001464 0.000398 -0.001059 0.001953 -0.000042 0.000312 0.001969 -0.000539 -0.001821 0.000256 -0.000056 0.001207 -0.000120 -0.001937 0.000966 -0.002321 0.000390 -0.000375 -0.000408 0.001440 -0.002409 -0.001246 0.001405 -0.001351 -0.001324 -0.001211 -0.002175 0.000616 0.000293 0.001327 -0.001919 -0.000217 -0.001755 -0.000388 0.002493 -0.001887 -0.001504 0.000809 -0.000080 0.001095 0.000257 -0.001695 -0.000093 -0.000519 -0.000101 0.002017 -0.001306 -0.000672 0.001229 0.001599 -0.001693 -0.000615 0.000454 0.002151 0.001377 -0.000846 0.001779 0.000307 0.001027 -0.002288 -0.002421 0.000943 0.001255 -0.001158 -0.002032 0.000953 0.002113 -0.000372 -0.000973 -0.001551 -0.001170 -0.000626 0.001729 0.002331 -0.002025 0.002024 -0.000642 0.000685 -0.001556 0.000101 -0.000168 -0.000610 -0.000785 -0.001982 -0.002179 -0.001078 -0.000619 0.002391 0.000317 0.000755 -0.001852 -0.001412 0.000684 0.001777 -0.001765 -0.000172 -0.002500 -0.000941 -0.000319 -0.001721 -0.000084 0.002267 0.000176 0.002335 -0.002296 0.002016 0.001332 0.001012 0.000496 -0.002458 0.001468 0.000215 0.000716 0.001139 -0.001500 0.000297 0.000898 0.001989 0.000657 0.001216 0.001504 0.000193 0.002202 0.001967 -0.001740 -0.002272 -0.000696 0.000965 0.002479 -0.001382 0.000299 -0.001845 0.000885 0.000594 0.002200 0.001154 0.001962 0.000331 0.001766 -0.002486 -0.000305 -0.001702 0.000357 0.002088 0.000842 -0.002351 0.001555 -0.000957 -0.000902 0.001838 0.000349 0.001922 -0.000427 0.000038 -0.001340 -0.000999 -0.001098 0.002344 0.001924 -0.001180 -0.000425 0.001852 -0.001580 -0.001357 0.000527 -0.001288 0.000609 -0.001881 -0.001508 -0.001420 -0.001771 0.000224 -0.001749 0.000449 -0.001553 0.001448 -0.001459 0.002130 -0.000705 -0.002154 -0.000184 -0.002297 0.002288 -0.002140 -0.000993 -0.001758 -0.000568 0.000105 -0.000031 -0.002078 0.001704 -0.000893 -0.002412
公司 0.001601 0.002472 -0.002194 0.001633 0.001129 -0.000806 -0.000633 0.001860 0.000593 0.002364 0.001068 0.002311 0.000856 0.001525 0.002149 -0.000295 0.000472 0.000511 -0.001099 -0.000042 0.002370 -0.001368 -0.002403 -0.000608 -0.002017 -0.001847 0.001990 0.001201 0.001758 0.001912 0.000191 0.000230 -0.000223 0.001416 -0.002123 -0.001001 0.001292 0.000418 0.000962 -0.002214 -0.000790 0.002132 0.000696 -0.001937 -0.002058 0.001611 0.001817 0.002097 0.001713 -0.000901 0.001492 -0.000050 -0.000656 0.000395 -0.002057 -0.001333 0.000791 0.001794 -0.001283 0.000342 0.001790 -0.001842 0.001436 -0.000246 -0.001640 -0.002498 -0.000152 0.001262 0.001559 -0.000064 -0.001531 -0.001272 0.000294 -0.000212 -0.001081 0.002210 0.002073 0.002046 0.000346 0.002464 -0.001582 0.001384 -0.002114 -0.002050 0.002336 0.001932 0.001366 0.000676 -0.001423 -0.001617 -0.002292 0.001511 -0.001928 -0.001934 0.001261 0.002378 -0.001654 -0.000658 -0.002482 -0.001653 0.000681 -0.000093 -0.000852 0.001508 -0.001227 0.001249 -0.000438 -0.000884 0.001807 0.001641 -0.002071 -0.000632 -0.001161 0.000592 -0.000132 -0.002135 0.001308 0.001668 0.000145 -0.001452 0.002196 0.001574 0.000056 0.000731 -0.001925 0.000006 0.002184 -0.001349 0.001708 -0.001827 0.001514 0.001989 0.001505 -0.001312 0.001220 -0.002483 -0.001874 -0.000080 -0.000417 -0.002377 -0.000642 0.000896 -0.002143 0.001846 0.002334 0.000015 0.002299 -0.001920 0.000196 0.001397 -0.001473 0.001516 -0.001520 -0.001906 0.002309 -0.002404 -0.001191 -0.001781 0.000094 0.001127 -0.001596 0.001441 -0.001277 0.000077 0.000369 -0.001774 -0.002485 0.000708 -0.001647 -0.000039 -0.000328 0.001149 -0.002108 0.000078 -0.001487 -0.002222 -0.000568 -0.000739 -0.000096 -0.001418 -0.001062 0.000443 0.001669 0.000081 0.000500 0.000475 0.000062 -0.002384 0.002306 -0.001798 0.000564 0.001228 -0.000134 -0.001430 0.001485 0.001894 0.000807 0.000677 -0.001173 -0.001749
