1843 50
*dt_0 0.434347 1.267035 0.455509 0.477183 -1.361879 -0.458867 -0.192143 -1.590953 -0.296938 0.926563 -0.103229 -0.855903 -2.396173 -1.123647 0.947639 0.472322 0.717084 0.672898 0.892119 1.609864 -0.881973 0.861819 1.751985 0.791385 0.571723 -0.036292 -0.153806 1.093278 -0.925171 0.620522 -2.197359 0.452581 -1.015340 0.164856 0.642862 -0.619240 -0.422432 1.724186 -0.289169 -1.381911 -1.291091 0.837871 1.000935 -0.170829 -1.037199 0.319892 0.898649 1.838097 2.367086 -0.902645
*dt_1 0.946510 0.546428 -0.243266 -0.615563 -0.326166 0.058325 0.145284 -0.399209 0.082813 -0.220197 -0.164661 0.460064 -0.252532 0.029619 -0.051090 0.078360 0.464629 -0.348357 -0.056743 -0.258442 0.088803 0.115756 0.665124 0.464441 0.765745 0.144695 -0.185145 -0.189879 0.634197 -0.386029 -0.818244 0.343828 0.176639 -0.308636 -0.090061 -0.734815 -0.597378 0.132617 -0.495855 -0.173390 -0.151088 -0.317535 -0.136363 -0.497657 -0.000344 -0.310963 0.345742 -0.196658 0.290029 0.085696
*dt_2 0.386271 -0.304083 0.551411 0.450860 -0.096303 0.577273 0.334534 -0.435678 -0.531611 1.356927 -0.752065 -0.349044 -1.408642 0.706738 0.128775 0.676753 0.786373 0.948990 -0.464375 0.128114 -0.024150 -0.447977 0.426347 -0.380732 0.574766 -0.033700 -0.442079 2.355611 -0.030914 -0.557534 -0.809871 0.243550 -0.157179 0.419911 -0.276282 0.420635 -0.535238 -0.701525 -1.095079 -0.039298 -1.094158 0.446359 0.674432 -1.012334 0.823311 0.000833 -0.297155 0.244154 -0.318723 0.059420
*dt_3 1.248788 0.156800 -1.422683 0.333717 -0.417401 0.210288 0.515824 -0.506695 -0.599427 -0.522967 -0.084781 -0.336177 -0.332866 -1.240114 -0.085359 0.294684 0.460613 -0.033870 0.917626 -0.846687 -1.413661 0.374258 0.142981 0.146698 1.871989 0.571982 -0.016157 -0.739491 -0.313886 -1.390252 -1.167957 0.108624 0.836980 0.460102 0.308126 0.527246 -0.887414 -1.044526 -0.497709 -0.640130 -1.140539 -0.302799 -0.923531 0.189540 0.270838 -0.007348 0.906113 -0.081804 -0.099370 0.462480
*dt_4 0.545689 0.214093 0.275303 -0.146976 -0.426028 -0.203150 0.001498 -0.264276 0.272001 0.525765 -0.015729 -0.740665 -1.118296 -0.223210 0.313541 0.406243 0.511462 0.254681 -0.178953 -0.400834 -0.197213 -0.149327 0.512045 0.296292 0.396157 0.024375 0.079154 0.322179 -0.502632 -0.762449 -0.485820 -0.154203 0.052329 0.197094 -0.043386 0.573886 0.311266 -0.108179 -0.493100 -0.479968 -0.112349 0.107244 0.073723 -0.030959 0.037982 -0.350597 -0.075600 0.360889 0.353961 0.059652
*dt_5 1.375391 0.196529 -0.456830 -0.416803 -0.381431 0.400476 0.313369 -0.335425 0.351432 0.001397 0.064690 -0.078205 0.180574 0.138044 -0.308587 0.839579 0.300585 -0.543680 -0.230768 -0.460268 -0.095570 -0.082052 0.333006 0.515137 0.907470 0.179784 0.054592 0.053630 0.145442 -0.285518 -0.448242 0.740609 -0.197859 -0.119851 0.122206 -0.232513 -0.314579 -0.022823 -0.780609 -0.327685 -0.492625 0.043105 0.317003 -0.961816 0.349675 -0.573321 -0.162730 -0.941483 -0.261093 0.471910
*dt_6 0.369669 0.634423 -0.952012 -0.319707 -1.019704 0.273481 -0.228036 -0.398043 0.141133 0.125219 0.011658 0.042933 -0.629282 0.085726 -0.265465 0.482506 -0.303713 -0.921207 0.000505 -0.313808 0.065058 -0.261624 0.698304 0.002972 0.693093 0.113977 0.114852 0.091228 -0.604426 -0.350538 -0.351153 0.022192 0.043908 -0.337551 -0.069719 -0.268761 0.128914 -0.527693 -0.389911 -0.442881 -0.279300 0.040366 -0.534658 -0.302886 -0.351396 -0.928342 -0.063930 -0.245024 -0.041182 0.483840
*dt_7 0.642387 1.214588 -0.787471 -0.324314 -1.015246 -0.112515 0.341500 0.206799 0.714696 -0.647611 -0.254553 -0.266940 0.475776 1.233318 -1.496926 0.775030 0.184646 -0.183377 -0.070095 -1.172099 -0.281470 0.367752 0.084747 1.475130 1.163935 0.358753 0.406031 0.028213 -0.880863 0.147011 -0.351757 -0.017364 0.410356 -0.242599 -0.306928 0.563084 0.169476 0.389660 0.361548 -0.273243 0.241106 -0.138745 -0.625041 0.245611 -0.353634 -0.507278 0.218394 -0.039239 -0.428742 0.186114
*dt_8 0.385406 -0.323003 0.934706 -0.434153 0.095893 -0.203004 1.457528 -0.699357 0.750431 -0.495544 -0.006413 -1.605193 -0.681344 1.373475 -0.125838 0.031387 0.641529 1.076222 0.339757 -0.163494 -1.181578 1.806390 0.899840 1.249846 0.830715 -0.271163 0.345189 -0.732570 -1.613834 -0.721586 -1.225488 1.025897 0.275442 0.106933 -0.056207 0.776332 0.025444 0.900995 0.077805 -0.887586 -0.504232 0.698879 0.351696 1.195895 -0.102733 0.899192 -0.585437 -0.214893 0.696804 0.304244
*dt_9 1.092875 -0.234731 0.385902 0.048689 0.458650 0.202543 -0.289329 -0.658491 -0.560742 1.428443 -0.174272 -0.192456 -0.133557 0.605754 0.625732 0.518880 1.162393 0.000986 -0.858160 -1.307259 -1.272444 0.979661 -1.202178 1.238362 -0.195293 1.804436 -0.088303 0.137486 0.475523 -1.058094 -0.558791 -0.140726 -0.414631 -0.072919 0.603224 0.084722 -0.256123 -1.354849 -2.302525 -0.644054 -0.822839 -0.388740 0.112175 -1.034057 0.567919 -0.307970 0.407532 -1.091808 0.791361 0.177859
*dt_10 0.436832 0.589410 -0.205144 -0.236166 0.006810 -0.318415 0.300179 -0.685401 0.453794 0.227720 0.083221 0.446843 -0.191347 0.534306 -0.393688 0.574523 0.072095 -0.534971 -0.385788 -0.538679 0.014308 0.456317 0.659530 -0.146257 0.987676 -0.208740 0.320570 -0.295528 -0.280814 -0.323154 -0.620544 0.107951 0.074830 -0.008239 0.907872 -0.176889 -0.143782 -0.006764 0.386633 -0.420529 -0.294200 -0.032085 0.077571 -0.524290 0.144851 -1.005422 0.126003 -0.410787 0.213622 0.515651
*dt_11 -0.058468 -0.172347 0.087607 0.278261 -0.028288 0.553407 0.953959 -0.515149 -0.102180 0.313808 0.015745 -0.477609 -0.411360 0.094577 0.252984 -0.686001 -0.336427 -0.159001 0.060576 -0.390447 -0.784917 0.258617 1.043762 0.473568 0.351221 -0.213838 -0.313204 0.467097 -0.838144 0.316777 -1.891260 -0.014863 -0.044241 -0.844224 0.363729 -0.069131 -0.422634 0.376277 0.075397 -0.208209 -0.864111 1.271221 0.529297 -0.395614 -0.586666 -1.241805 0.444857 0.312924 0.139971 0.337787
*dt_12 1.027956 0.412212 -0.554143 -0.010031 -0.586079 0.630619 -0.323131 -0.272240 0.036006 0.543596 -0.123743 0.128127 -0.530320 0.403636 -1.105217 1.073919 0.415749 -0.347534 -0.602655 -0.543251 -0.031988 -0.215217 0.530295 -0.016195 0.786945 0.566498 0.695955 0.358475 -0.047492 -0.216049 -0.802887 0.379959 0.139969 -0.187109 0.185699 -0.131324 -0.217435 -0.459004 -0.454123 -0.064657 -0.658849 -0.024241 0.224067 -0.847323 0.251214 -0.529973 0.209391 -0.169328 -0.196684 0.050926
*dt_13 0.112314 -0.648368 -0.478348 -0.419038 -0.113936 0.062147 1.091378 -0.790405 -0.124270 0.375978 0.140719 -0.124233 -0.228931 0.060029 0.599636 0.049482 -0.187261 -0.879233 -0.545456 -0.151838 -0.446709 -0.230576 0.133877 0.078353 0.249163 0.144646 0.076772 -0.450685 -0.327303 -0.190328 -1.061110 0.489930 -0.794502 0.671858 0.245097 -0.617382 -0.548173 0.276735 -0.142367 -0.498069 -0.071439 -0.158396 0.724579 -1.339244 0.463028 -0.239133 0.073955 0.657398 0.660503 0.714605
*dt_14 0.589128 0.135566 -0.121054 -0.158741 -0.179340 0.423453 0.415499 -0.800137 0.252116 0.851987 -0.142007 -0.369462 -0.104622 0.384061 0.207063 -0.134856 0.354131 0.025383 -0.002613 0.035778 -0.484098 0.204126 0.141475 0.240800 0.432029 0.085262 -0.231098 0.260845 0.009066 -0.550183 -0.474984 0.421507 -0.070530 -0.129025 0.345603 -0.125735 -0.031952 -0.015255 -0.525896 -0.937957 -0.440333 -0.102866 0.456816 -0.719065 -0.122112 -0.050393 -0.194585 0.077778 -0.087721 0.104528
*dt_15 0.510493 0.412506 0.449967 -0.393375 -0.603078 -0.017269 -0.008535 -0.857275 0.745203 0.630311 -0.707435 -0.168782 -0.086712 0.179324 -0.551987 0.696748 0.276689 -0.105523 -0.628745 -0.050149 -0.358930 -0.656277 0.800162 0.360389 -0.087146 0.547662 -0.047704 0.111320 0.501738 -0.405509 -0.376805 0.007959 -0.036929 -0.757257 -0.118411 0.268155 -0.155820 -0.032909 -0.679967 -0.176819 -0.362562 0.573333 -1.544094 0.130506 0.126308 -1.069420 0.020102 -0.594314 -0.697184 0.434644
*dt_16 -0.409257 0.818050 -0.111249 0.474472 -1.050169 0.040634 0.331615 -0.974348 -0.739447 1.097906 -0.984209 -0.743672 0.668820 1.249512 -2.603344 0.301651 0.264990 0.354187 -1.616597 0.121749 0.089104 -0.806425 1.047469 0.625845 0.734995 -0.400706 0.190424 0.943392 0.286798 -2.380524 -0.595341 0.633301 0.446140 0.048240 1.405714 -0.121182 0.876235 0.810547 0.617523 0.463026 0.372837 0.253264 -0.894815 -0.847875 0.164616 -0.603703 1.119992 -0.495680 -0.371679 0.660632
*dt_17 0.510689 1.012600 -0.795674 -0.159517 -0.558801 -0.253115 -0.014017 -0.894320 -0.827791 -0.155975 0.208219 -0.154501 -0.442946 0.722465 0.251058 -0.030311 -0.020195 0.368285 0.589620 -1.070437 -1.029031 0.498619 -0.334543 0.687480 0.970942 0.527472 0.426739 0.635837 -0.262483 0.351056 -0.462602 0.137160 0.102336 0.199606 0.119487 -0.268744 -0.412653 -0.179996 -1.421620 -0.374623 -0.520211 0.177076 -0.118146 -0.393757 0.481049 -0.905596 0.667164 -0.356421 -0.302806 0.831745
*dt_18 0.707761 0.467397 0.027480 -0.290194 0.566351 0.293842 0.669828 -0.155531 0.812073 0.018427 0.285034 -0.839794 -0.297310 0.329399 0.376879 0.214837 -0.303462 0.242784 -0.235690 0.043306 -0.843881 0.080355 0.760765 1.872212 0.774008 0.408496 -0.514422 -0.060572 -0.282607 -0.670417 -0.429019 0.742242 -0.097835 0.412008 0.406837 0.565035 0.459938 0.375425 -0.348710 0.016225 -0.637971 -0.462415 0.644453 0.051945 -0.403263 0.206917 0.141519 0.544509 0.233870 -0.198370
*dt_19 0.173893 0.490809 -0.052554 0.161487 -0.522113 0.162081 0.199403 -0.546257 0.225045 -0.226245 -0.071425 -0.085093 0.047880 -0.283971 0.203549 0.364331 -0.046739 -0.083876 0.434707 -0.955468 -0.497081 0.436056 1.081659 0.876227 0.978022 -0.425289 -0.717638 -0.119956 -0.083160 -0.580970 -0.770409 0.536290 -0.112003 -0.221262 -0.518266 -0.312984 -0.797036 -0.278535 -0.609189 0.062276 -0.596508 -0.149577 -0.618848 -1.026515 0.361888 -0.037470 0.347788 -0.243230 0.419839 -0.118875
*dt_20 0.597808 -0.047640 -0.616314 -0.312019 -0.182631 -0.005986 0.524112 -0.510703 0.286102 -0.104082 0.038833 0.200945 -0.403703 0.444454 -0.424992 -0.314273 -0.201227 -0.271844 -0.054395 -0.591122 -0.569575 0.383124 0.650318 0.621445 0.624510 0.053034 -0.091622 -0.061006 0.091927 -0.653720 -0.302059 0.289096 -0.029618 -0.225697 -0.238284 -0.213431 0.152267 0.151108 0.064850 -0.134898 -0.165774 0.307825 -0.029453 0.107529 0.198505 0.124614 0.392629 -0.469809 0.095588 0.610559
*dt_21 0.269836 0.872340 -0.517284 -0.115486 -0.077360 0.069492 -0.454888 -0.127965 -0.110949 0.078922 -0.162286 -0.589103 -0.600490 0.011787 -0.716698 0.504546 -0.447719 -0.326023 -0.162025 -0.790543 0.191384 -0.246306 0.795626 0.088957 0.417480 0.346186 -0.132153 0.421823 -0.139185 -0.327409 -0.439937 0.162680 0.460410 -0.112522 -0.110109 -0.156434 0.064696 0.362626 -0.423874 -0.107642 -0.004428 0.223854 -0.251195 -0.343875 0.259261 -0.913301 0.317510 -0.944971 -0.292953 0.972458
*dt_22 0.610187 0.829480 0.046759 -0.207358 0.128324 0.062973 0.376526 -0.684816 0.379223 0.533917 0.126060 -0.197371 -0.359279 0.492381 -0.362618 0.051346 0.099378 -0.338216 -0.417142 -0.386649 -0.475478 0.656860 0.063895 0.128053 0.458747 0.247836 0.765093 -0.028544 -0.477064 -0.408338 -1.169060 0.430338 0.082690 -0.470019 0.117527 -0.048106 0.140343 -0.360807 -0.468221 -0.656190 -0.484204 0.587545 0.001910 -0.413959 0.052722 -0.219192 -0.037721 -0.155373 0.028690 0.353844
*dt_23 0.708781 -0.396344 -0.228830 -0.105732 -0.466491 0.528502 -0.276982 0.186713 0.288736 0.091233 0.306907 -0.635516 -0.237950 0.643362 -0.314073 1.448843 0.452734 -1.127210 -0.763890 0.057503 -0.603761 0.359036 -0.111449 0.559093 0.500081 0.939723 0.361898 -0.139319 -0.340952 -0.550144 -0.698124 0.094837 0.224804 0.178787 0.355806 0.083481 -0.610233 -0.202529 -0.123425 -0.905277 -0.213418 -0.001874 0.128782 -0.086484 -0.100523 -0.845999 0.454761 -0.062679 -0.199564 0.217319
*dt_24 0.673188 -0.093747 -0.663824 -0.455207 0.017986 0.197323 -0.056740 -0.106366 -0.027292 0.612261 0.222135 0.236934 -0.524260 0.181723 -1.401155 0.255644 0.347153 -0.380622 0.601388 -0.921472 -0.183806 0.889660 0.841722 0.161746 0.421800 0.369654 0.226479 0.019173 0.244017 -0.671595 -0.777401 0.243586 -0.153789 -0.399759 -0.310827 -0.406380 -0.054666 -0.794131 -0.319295 -0.209165 -0.689753 0.798261 -0.205693 -0.434938 -0.242780 -0.424224 0.225985 -0.199949 -0.571513 0.647330
*dt_25 0.593875 0.025728 -0.104805 -0.321038 -0.022495 -0.057564 0.384637 -0.528522 0.252945 -0.035787 0.301943 -0.408244 -0.289876 -0.047588 0.027756 0.159548 0.237031 -0.320584 -0.264926 -0.023238 -0.453679 0.256445 0.390969 0.348110 0.002020 0.057399 0.062777 -0.136105 -0.158902 -0.462551 -0.196707 0.284213 -0.034416 -0.178268 0.221560 0.112177 0.237618 -0.216010 -0.109323 -0.406714 -0.187768 0.080598 0.128984 -0.152061 -0.547468 -0.394336 -0.196638 -0.122382 -0.075709 0.373388
*dt_26 0.202095 -0.086055 0.052281 -0.103487 0.329249 0.086555 0.023811 -0.184706 0.235756 0.032150 -0.009657 -0.071366 -0.581026 0.478934 -0.188922 0.398300 -0.024887 -0.050839 -0.633195 -0.458591 -0.170622 0.106493 0.505414 0.015553 0.281078 0.085408 0.404079 0.059482 -0.134346 -0.727231 -0.374825 -0.036499 -0.010220 -0.091469 0.035855 -0.009386 -0.089119 -0.058477 -0.279447 0.066728 -0.449017 -0.031085 0.238955 -0.244041 0.218864 -0.078550 0.454142 -0.203222 -0.262150 0.290886
*dt_27 -0.031219 -0.306598 -0.139789 -0.669299 -0.457055 -0.210127 0.003799 -0.219304 0.489359 -0.256564 -0.040368 -0.270879 -0.504324 1.285419 -0.475226 0.731442 0.017104 0.044246 -0.522138 0.011213 -0.073782 0.357932 0.758422 0.750967 0.128224 0.210742 0.140617 -0.174658 -0.194621 -0.405504 -0.151959 0.020836 0.044583 0.012537 0.390064 0.215622 0.472014 0.227051 -0.152228 -0.049501 -0.268096 0.041408 -0.082112 -0.032390 -0.627218 -0.564756 0.161993 -0.226589 0.147196 0.320154
*dt_28 0.661264 0.209223 0.084876 0.203545 0.144029 -0.048164 0.060947 -0.190152 0.482518 -0.434845 0.957906 -1.388158 -0.904285 0.111545 -0.309045 0.151460 -0.044149 -0.315815 0.572964 -0.397392 -0.302349 0.255755 0.094823 0.095921 0.099900 -0.039024 0.496146 0.346543 -1.188364 -1.058325 -0.370419 0.762160 0.316714 -0.663612 -0.149584 0.379672 0.695685 0.053022 0.219420 -0.539368 -0.619577 1.278359 0.614822 0.150968 -1.152264 -0.406549 -0.253398 -0.957885 -0.109217 1.050040
*dt_29 0.670062 1.154209 -0.014321 0.110254 -0.897025 1.277388 0.073733 -0.384380 0.613423 0.210055 0.571857 -0.333198 -0.501808 -0.486888 0.121458 0.428275 -0.016299 -0.184073 0.230484 -0.121483 -0.136195 0.412449 0.830938 0.846498 0.456158 -0.226222 -0.402549 0.507103 -0.124260 -1.022721 -0.512326 0.853361 -0.082068 -0.727989 -0.024862 -0.483373 -0.263170 0.407901 0.262687 0.072361 -0.167318 0.018915 -0.066370 -1.114490 -0.752769 0.014165 0.270145 -0.649327 -0.161891 0.717250
*dt_30 -0.170315 -0.966805 -1.276830 -1.273382 -0.618288 0.019619 0.906593 -0.248214 -0.940151 -0.568458 0.043355 -0.036081 -1.676545 0.105313 -1.456569 -1.172612 -0.128192 -0.044426 -0.006142 -0.246570 -0.210117 0.546039 1.479068 0.528515 -0.441269 0.681555 0.742624 0.029018 1.158969 -1.649209 -0.559565 1.224905 0.269348 -1.147611 0.709290 -0.201741 0.179921 -0.003993 -0.769257 -0.967634 -0.641811 0.742115 0.729592 -1.006369 -0.029172 0.031497 0.586767 -1.047083 -0.817191 1.249281
*dt_31 -0.197299 0.043799 -1.120875 -0.114013 -0.516557 0.261040 1.079761 0.431891 0.933617 -0.962007 -0.259763 -0.323669 -0.765018 0.850562 -1.057388 1.185325 -0.149161 0.303766 0.706052 0.609813 -0.773410 -0.469036 1.473486 1.610879 0.779963 -0.132064 0.208942 0.954371 -0.149015 0.367303 -0.936056 -0.141466 0.421833 -0.526648 0.327296 0.353770 -0.295525 -0.489209 0.301094 -0.645832 -1.346735 -0.216998 -0.090147 -0.420107 -1.132819 -0.744646 0.517288 -0.271009 -0.201215 -0.059963
*dt_32 0.943573 -0.362078 0.190173 -1.237837 -0.563233 0.543838 -1.036818 0.528310 0.996302 0.679390 0.361708 -0.101067 -0.362397 1.320088 -0.732985 0.609974 0.781489 -0.433455 -0.660291 -0.875725 -0.794329 0.501096 -0.178676 0.087748 -0.550902 0.891348 0.848347 -1.843328 -0.365525 -2.330563 -0.407683 0.582843 0.115909 -0.719784 0.732731 -0.796410 0.860517 0.000244 -0.780294 -1.651458 -0.454396 1.081677 0.270111 -0.666983 -0.735711 -0.545071 0.292992 -0.657769 -0.608603 1.082154
*dt_33 1.015365 -0.407675 -1.321066 -0.576793 -0.909150 0.541269 -1.036037 -0.532913 -0.956226 1.225774 -0.378141 0.399969 -0.337895 0.545293 0.262063 3.110721 0.801766 -0.481175 0.117947 0.465573 0.774400 -0.628114 0.375418 0.452915 1.126708 0.830942 0.373475 0.460545 -0.870815 0.186125 -0.679882 0.652948 -1.235490 0.533125 0.002301 -1.269868 -0.338696 -0.830885 -0.962885 -0.024008 -1.243045 0.371414 0.326353 -1.616143 0.003342 -2.531391 -0.525948 0.590229 0.942215 0.034477
*dt_34 -0.040616 0.142597 -0.546081 -0.362082 -0.447746 -0.231775 0.772329 -0.634146 -0.189490 -0.142860 0.014391 -0.386788 -1.377662 0.871727 -1.009577 1.203943 -0.561500 -0.449369 0.700957 -0.585269 -0.448648 0.854230 0.881343 0.399650 0.355440 0.765521 -0.372031 0.660753 -0.501302 -0.363447 -1.217693 0.558383 0.045649 -0.082164 0.151707 -0.559142 -0.054373 -0.405007 0.125202 0.175705 -0.577320 -0.062734 0.121605 -0.930016 0.151847 -0.746836 -0.327775 -1.013320 -0.412654 0.424263
*dt_35 0.487273 -0.067949 -0.905718 -0.080538 -0.480884 -0.381058 -0.098889 -0.566941 0.148318 -0.087782 0.028796 0.219919 -0.514669 0.267694 -0.932246 0.389508 0.172483 -0.159403 0.357548 -0.338334 -0.302438 0.502914 0.740597 0.031403 0.339061 0.236176 0.295745 0.548069 -0.379204 -0.689734 -0.547737 0.381945 -0.024489 -0.057961 0.676907 -0.437990 0.205544 0.140630 -0.379737 -0.353553 -0.317870 0.001667 0.278449 -0.524542 -0.550211 -0.762726 0.021976 -0.257668 -0.312440 0.479198
*dt_36 0.478265 0.131257 -0.229252 0.010482 -0.014772 0.087110 0.489275 -0.472972 0.262225 0.045742 0.032950 -0.086128 -0.363049 0.115122 -0.221469 0.009664 0.047411 -0.236146 0.010751 -0.582214 -0.666013 0.403383 0.632115 0.693136 0.507298 0.150780 -0.066477 -0.154312 -0.175718 -0.293468 -0.752813 0.498909 0.048217 -0.119243 -0.140955 -0.214432 0.025758 -0.086496 -0.255060 -0.149934 -0.370275 0.262178 0.111266 -0.149874 -0.177267 -0.125118 -0.002334 -0.240538 -0.003093 0.249936
*dt_37 -0.080367 0.200618 0.022634 0.539412 0.507850 -0.360230 0.337009 -0.622788 0.166095 0.051210 0.148129 -0.253131 -0.139152 0.237432 -0.435214 -0.034170 -0.602351 -0.415816 -0.325299 -0.472190 -0.404184 -0.241294 0.290176 0.495498 -0.072363 -0.065947 0.127422 0.281745 -0.383060 -0.801285 -0.257665 0.690331 -0.360930 0.336979 0.263419 -0.052668 0.544643 -0.150940 0.050774 -0.342036 -0.275184 0.592184 0.481896 -0.357656 0.126735 -0.182945 -0.192053 -0.584695 -0.229654 0.496519
*dt_38 0.849009 0.398710 -0.124691 -0.234215 0.319426 0.624374 0.241876 -0.627192 0.390261 0.673330 0.060749 -0.667553 -0.764984 -0.172542 -0.249985 0.461382 0.151470 -0.093045 0.261827 0.211462 -0.413423 0.287089 0.833829 -0.243947 0.334684 -0.009034 0.257263 0.229953 -0.193757 -0.545297 -0.545801 0.691812 0.417793 0.057042 0.261330 0.477172 0.120055 0.292797 -0.281857 -0.494873 -0.355883 0.374400 0.315744 -0.119784 -0.170277 -0.033826 -0.058040 0.416145 0.451909 0.126613
*dt_39 0.489384 0.008011 -0.210832 -0.103282 -0.152356 0.174878 -0.429700 -0.174942 -0.390778 0.534503 0.780052 -0.149806 -0.859581 0.421130 -0.626292 0.552707 -0.211993 -0.872526 -1.249171 -0.497347 -0.024531 -0.258561 0.539939 -0.082471 0.505325 0.538729 0.086413 -0.343082 -0.395038 -0.760708 -0.369539 0.185910 0.107679 -0.425111 -0.169901 -0.361206 -0.645340 0.574207 -0.349964 -1.022185 -0.681047 0.656095 0.175609 -0.506675 -0.047048 -1.154050 0.290932 -0.305686 0.825272 0.283743
*dt_40 0.753097 -0.070775 -0.782807 -0.543736 0.219445 -0.138743 0.454177 -0.587877 0.622114 0.107193 0.100966 0.175266 -0.601129 -0.193482 -0.669432 0.935619 0.205845 -0.544826 -0.136429 -0.840012 -0.399511 0.545169 0.368217 0.361052 0.372956 0.613009 -0.093372 0.052384 -0.271119 -0.054098 -0.322728 -0.182485 -0.506421 0.273610 0.373847 -0.188481 0.145018 -0.170487 -0.110994 -0.117018 -0.281049 0.217217 0.777649 -1.160113 -0.248669 -0.106581 0.402333 -0.430451 -0.135091 0.673542
*dt_41 0.162279 0.160741 0.025222 0.467374 0.269024 0.701707 -0.114431 -0.374307 0.140574 0.534842 -0.260261 0.198705 -0.456162 0.040909 -0.631549 0.170705 -0.181271 -0.335109 -0.776792 -0.640035 0.120643 -0.098485 0.255269 -0.280510 0.045255 -0.108027 0.457515 0.280119 -0.439402 -0.065699 -0.294176 0.405084 -0.463755 -0.357374 0.023424 0.113094 0.282235 -0.435095 -0.641980 0.186544 -0.576203 0.260762 0.168355 -0.333833 -0.864073 -0.453767 -0.089656 0.045885 0.596344 0.104705
*dt_42 0.223742 0.950155 -0.536329 -0.065406 0.045957 0.358864 0.245293 -1.153194 -0.061311 0.669752 -0.240206 -0.534080 -0.631513 -0.134902 -0.377147 0.627557 0.072326 -0.445083 -0.036834 -0.490759 -0.158231 -0.137209 0.865924 0.546781 0.599054 0.096891 -0.300744 0.694506 -0.165333 -0.467623 -0.747017 0.614997 -0.559195 -0.282377 0.013721 -0.476771 -0.239627 0.072951 -0.101001 0.423185 -0.449867 0.177284 -0.380563 -0.741356 -0.274140 -0.760936 0.138070 -0.248254 0.286843 0.592337
*dt_43 1.186805 0.875300 -0.416964 -0.226647 0.029494 0.108824 0.046438 -0.491062 -0.213624 0.732758 0.297422 -0.675285 -0.191881 0.030847 0.036438 -0.024124 0.898003 -0.702803 -0.180173 -0.579767 -0.813220 0.160232 -0.088464 0.451145 0.863540 0.578744 -0.236435 0.172152 0.027178 -0.839651 -0.561098 0.091798 0.140014 0.055943 -0.076749 -0.132443 -0.256554 0.157211 -0.513883 0.353148 0.295564 0.164617 -0.234020 0.357835 0.640177 0.013048 0.578152 -0.478032 -0.085195 0.412580
*dt_44 0.606308 -0.357076 0.027954 -0.425986 0.362079 0.002694 -0.364567 -0.212253 1.631702 0.154943 0.299019 -0.478251 -1.330573 -0.230555 0.333015 1.703500 0.655360 0.057563 0.225077 0.175446 -0.873613 1.359633 -0.166954 1.121698 -0.627894 0.027158 -0.070960 -0.045860 0.309653 -0.697825 -0.699431 1.434335 0.087255 -0.306004 0.401247 0.492328 0.375914 -0.413196 -0.536599 -0.963083 -0.798725 0.450793 0.793224 -0.912986 -0.536171 0.417325 -0.405616 -0.367387 -0.661942 -0.121436
*dt_45 0.625845 0.282614 -0.164802 -0.193568 0.254002 0.258383 0.100395 -0.206850 -0.065541 0.025884 0.210195 -0.248610 -0.324214 -0.096973 -0.380300 -0.303369 0.470509 -0.582675 -0.118472 -0.636740 -0.775790 0.164457 0.469018 0.384172 0.572736 0.559273 0.127462 -0.128498 0.166175 -0.349441 -0.936975 -0.234113 0.051470 -0.219943 -0.276322 -0.243459 -0.366863 0.065067 -0.446308 -0.448969 -0.412674 0.449592 0.181463 -0.433315 0.405584 0.089443 0.485152 -0.215794 0.306140 0.512518
*dt_46 0.327652 0.036727 -0.272355 -0.129608 -0.396074 0.569946 -0.176424 -0.299222 -0.109858 0.258367 -0.185349 -0.391206 -0.381054 -0.017446 -0.518035 0.227113 0.085967 -0.204486 -0.260408 0.259647 0.032098 0.058828 0.497006 0.148350 -0.043636 0.124135 0.249806 -0.156465 -0.224436 0.310160 -0.459764 0.314585 -0.239135 0.170311 0.477583 -0.283884 0.253574 0.403485 -0.429589 -0.159467 -0.507288 0.492560 -0.234580 -0.152094 -0.240544 -0.131472 0.139797 0.313816 0.205265 0.412399
*dt_47 0.773721 0.872563 0.292594 -0.046591 -0.263965 0.213598 0.943347 -0.671172 0.668250 0.528978 -0.600801 -0.233300 -0.303763 -0.493455 -0.079303 -0.100595 0.312636 -0.176497 0.777005 -1.246782 -0.050012 0.206009 1.214950 0.846632 0.641820 0.195800 -0.992880 0.705325 -0.262869 -0.748509 -0.857597 0.381958 -0.690618 0.351587 -0.508455 0.625019 -0.038944 -0.149444 -0.941348 -0.382425 -0.655644 0.215008 -0.564972 -0.250046 -0.021204 0.268115 0.649161 0.288057 0.226693 -0.046806
*dt_48 0.430998 0.750373 -0.832358 0.495624 -0.044571 0.597962 0.362436 -0.528577 0.167097 0.745503 0.420364 -0.728472 -0.486606 0.696298 0.183015 0.710122 -0.027772 -0.809190 0.128893 0.115757 -0.804467 -0.116274 0.146408 0.815145 0.285318 0.347437 0.339973 0.372975 -0.807409 -0.708483 -0.542228 0.610762 -0.320366 0.049314 -0.009297 -0.131478 -0.281493 0.093189 -0.059349 -0.486949 -0.318952 0.691351 0.745164 -0.267490 0.108095 -0.095242 -0.088490 -0.025185 0.699943 0.051045
*dt_49 0.236605 -0.006329 0.168335 0.043127 -0.113062 -0.106181 0.092523 0.016110 0.911153 0.134109 -0.223112 -0.309267 -0.152827 1.005257 0.532143 0.414638 0.638306 0.029244 -0.428156 -0.149385 -0.206521 0.522493 0.679789 1.047226 0.182115 -0.159728 -0.334178 -0.160702 -0.455198 -0.409849 -0.449337 0.050001 -0.675765 -0.078800 0.399500 -0.303644 -0.167230 0.342256 -0.385685 -0.084993 -0.048833 -0.322217 0.538527 -0.436370 -0.093378 -0.036079 0.198425 0.067877 0.016775 0.084230
*dt_50 -0.057843 0.331046 0.460409 -0.095030 -0.395992 0.350504 0.258455 -0.404941 0.623772 0.283192 0.098990 -0.156870 -0.358647 0.235998 -0.107570 -0.386960 0.449805 -0.034948 -0.991059 -0.398670 -0.907187 0.017570 0.607764 0.939503 0.429263 0.276172 0.108546 -0.192172 0.192867 -0.735333 -0.554930 0.236377 0.127884 -0.530582 -0.041229 0.680868 0.078110 0.096318 -0.826052 -0.371899 0.038655 0.179761 -0.069551 -0.012242 -0.190198 -0.302743 0.190958 -0.164323 0.624250 0.424699
*dt_51 0.386959 0.342438 -0.132474 -0.053578 -0.569610 0.202154 -0.063308 -0.330339 0.605042 0.492000 0.086677 -0.599257 -0.385655 0.635643 -0.176492 -0.057593 0.283092 -0.138528 -0.394846 -0.185410 -0.063072 -0.050613 0.871044 0.626256 0.487429 -0.150697 0.189529 0.059425 -0.408260 -0.748800 -0.776237 0.099284 0.128270 -0.417189 -0.007493 0.192525 0.152996 -0.012819 -0.249413 -0.402825 -0.222701 0.132921 0.352110 -0.432959 -0.150015 -0.570758 0.061737 0.348706 0.325866 0.125826
*dt_52 0.679657 -0.316238 -1.111437 -0.268042 0.268965 -0.123022 0.466033 -0.723744 0.104490 0.077862 1.031037 -0.657963 -2.123248 0.917470 -0.187434 0.088419 0.238173 0.453855 -1.432209 0.877293 -0.601610 0.526184 1.042314 1.023197 -0.295779 0.653525 0.039341 -0.369976 -0.059091 0.591917 -0.622034 0.381733 -0.555864 -0.684021 0.397523 0.629357 -0.287853 0.499495 -0.254206 0.444794 -1.241466 1.051448 0.176499 0.151077 -0.025161 0.143481 0.457202 -0.695293 0.954984 1.054953
*dt_53 0.580955 0.060618 -0.531252 -0.811328 0.076930 0.616337 -0.107942 -0.787100 0.720787 -0.247297 -0.151747 -0.443841 -0.569517 0.705453 -0.916889 0.761057 -0.599299 -0.434069 -0.622713 -0.647086 -0.217374 -0.443744 1.352882 0.816758 0.479675 0.702235 0.028179 0.284811 -0.487263 -0.424217 -0.509164 -0.083839 -0.295842 -0.549043 0.403413 -0.206959 -0.126843 0.094390 0.292529 -0.056404 -0.754374 0.169841 0.023214 -0.254029 -0.301219 -1.082415 0.191574 -0.198470 -0.499714 0.751849
*dt_54 0.334100 0.744176 0.406129 -0.038724 -0.302158 -0.159473 0.611066 -0.740823 0.303864 -0.438054 -0.078980 -0.829227 -0.899249 0.202004 0.037154 -0.055164 0.166457 0.438308 0.197074 -0.274786 -0.940339 0.172647 0.771814 0.707899 0.289142 -0.142531 -0.015084 0.424288 -0.274044 -0.711600 -0.347660 0.357728 -0.046597 0.162876 -0.008598 -0.038350 0.440750 -0.044054 -0.438895 -0.022137 -0.327231 0.255612 -0.472827 0.539342 0.019651 0.542731 0.208721 -0.814147 0.047158 0.527964
*dt_55 0.693198 -0.487186 -0.158101 -0.329034 -0.985630 -0.072148 -0.859505 -1.180223 -0.751055 0.377478 -0.573376 0.394559 -0.724378 -0.268683 -0.053255 0.100402 0.753661 -0.747612 -0.205861 0.007726 -0.238055 0.730376 1.452507 -0.500357 0.946299 0.103781 0.505025 0.387603 -0.474382 -0.373747 0.052032 0.193125 0.408791 1.039480 0.867434 0.209642 0.314104 -0.102002 -0.639643 -1.388712 0.173887 0.312493 -0.287224 -0.869187 0.717861 -1.266330 -0.106187 -0.296557 0.125739 -0.154161
*dt_56 1.721708 0.415067 0.477857 -0.344166 -0.916454 1.428115 1.571721 -0.043183 0.101012 0.965411 -1.417621 -0.309482 -0.168202 0.462407 1.069778 -0.583178 -0.009399 -0.652673 -1.011355 -0.163971 -0.651559 0.341845 0.155241 0.636753 0.376323 -0.335534 -1.049815 -0.012953 -0.500351 -0.771806 -0.755319 0.704320 -1.054374 0.153623 0.099340 0.117280 -0.149935 -0.479409 -0.523363 -0.747875 -0.546256 1.465339 0.538754 -1.003036 0.524961 1.285392 0.155968 0.382736 0.986163 -1.020403
*dt_57 1.095433 0.404906 -0.505548 -0.018004 -0.074063 1.570398 1.096679 0.410113 -0.277307 0.064611 -0.120146 -0.057578 -0.476608 0.165726 -0.509370 0.664796 0.049706 0.223330 0.713345 0.260027 -0.905885 0.089290 0.792853 1.236531 0.376650 0.505452 0.280961 -0.355817 -0.200431 -0.242779 -0.790188 0.828435 -0.164204 0.229545 0.869159 1.107586 0.382530 -0.245416 -0.787029 -0.249881 -1.029424 -0.258344 0.204943 0.824903 -0.232813 0.604098 0.425728 -0.421062 1.010251 0.182073
*dt_58 0.614589 0.095945 -0.101299 -0.205235 0.117595 -0.017725 -0.413613 -0.225376 0.138260 0.331198 0.035651 -0.258737 -0.018265 0.399766 -0.663417 0.153550 0.591260 -0.529329 -0.756210 -0.302120 -0.191798 0.134693 0.284590 0.502514 0.288525 0.025506 0.506899 -0.315900 -0.095990 -0.351823 -0.336112 -0.065649 0.065414 -0.457860 -0.008548 -0.145747 -0.007910 -0.147878 -0.128776 -0.236203 -0.126283 -0.026814 0.462136 -0.030742 0.209700 -0.450530 0.247781 -0.025982 -0.133768 0.119719
*dt_59 0.383321 0.376463 -0.583135 -0.089413 -0.327820 0.614276 0.303896 -0.278071 0.075610 0.530199 -0.151040 0.025372 -0.415136 0.259578 -0.727965 0.235304 -0.248346 -0.521175 -0.488249 -0.235716 0.104680 -0.238227 0.500037 0.029121 0.500233 0.315038 -0.087390 0.238679 0.027207 -0.078562 -0.242139 -0.001720 -0.125779 0.216507 -0.125449 -0.406120 0.188332 0.124213 0.074832 0.100831 -0.076903 0.185669 -0.116591 -0.477067 -0.281371 -0.520952 -0.095012 -0.259614 0.095447 0.379803
*dt_60 1.621614 0.046233 0.386957 -0.179994 -0.089771 -0.942350 -0.296878 -1.524396 -0.462650 0.633858 0.778281 -1.512729 -3.546458 0.421302 1.041918 0.736041 0.556222 -0.411496 -0.418314 0.090431 -0.181806 -0.154860 -0.424121 1.504423 -0.306715 1.622213 -1.022362 0.052030 -0.575544 0.374721 -0.400997 -0.977254 0.241520 -0.593488 -0.131607 0.755667 -0.161388 -0.934589 -0.896976 0.117605 -0.114587 -0.126329 1.071549 0.951814 -0.979626 -0.727512 1.100366 0.584789 2.150253 -1.622122
*dt_61 0.853503 -0.009147 -0.472628 -0.371843 -0.720641 0.946873 -0.400537 -0.138934 -0.564898 0.080360 -0.386479 -0.120530 -1.533420 -0.022355 -0.757867 0.064007 -0.175001 0.302363 -0.186822 -0.637765 0.008261 -0.127287 0.696135 -0.639984 0.238015 0.175230 0.448990 0.136997 -0.175831 -1.297228 -0.424989 0.324468 0.754708 -0.270358 0.081265 -0.291238 0.096834 0.044051 -0.831583 -1.215087 -0.349510 0.443430 0.744294 -0.793306 -0.343648 -0.611764 -0.102939 -0.149189 0.449909 -0.148574
*dt_62 1.256935 -0.186213 -0.484656 -0.148770 0.340155 0.458111 0.692276 -0.013572 0.516004 0.778168 0.083152 -0.639018 -0.334531 0.563132 -0.126649 -0.110440 -0.067209 -0.208512 0.039203 0.399357 -0.661724 0.244824 -0.411584 0.821809 -0.085254 0.647492 -0.530907 0.243991 -0.109971 -0.142016 -0.987306 -0.052577 -0.287742 -0.314905 0.103898 0.218356 -0.019259 -0.194173 -0.354175 -1.029392 -0.823350 0.331021 0.477261 -0.135820 -0.485404 0.106637 0.148455 -0.224579 0.205857 0.508252
*dt_63 0.927308 -0.040893 0.480750 -0.079219 0.875523 -0.583192 0.671628 -1.038488 0.382736 0.454368 0.404577 -1.314835 -0.476677 -0.177317 0.113426 0.617939 0.190246 -0.494025 -0.794847 0.182142 -0.637807 0.369162 0.419697 1.092585 0.269685 -0.162049 0.218954 -0.439126 -1.423900 -0.955455 -0.307193 0.555551 -0.209634 0.377928 0.331974 0.296501 0.329350 0.662171 -0.130150 -0.590193 0.022999 0.309149 0.877706 -0.715593 -0.053674 0.036280 -0.146081 -0.022717 1.037056 -0.063920
*dt_64 -0.368726 0.280294 -0.541801 0.114350 -0.720401 0.225206 -0.122381 -0.306643 -0.141889 0.485607 -0.683126 -0.521563 -1.550913 -0.949118 0.446810 0.697304 0.448312 -0.033720 0.296170 -0.113279 0.066199 -0.461145 0.879291 0.424221 0.962649 0.224483 -0.356816 0.565824 -0.341659 0.094218 -0.953392 -0.301910 -0.472256 0.310375 -0.447946 -0.229027 -0.094766 -0.624455 -0.571131 -0.022123 -0.149008 -0.340468 -0.733391 -1.281508 0.246789 -0.796645 0.255705 -0.328756 0.762253 0.036660
*dt_65 0.261332 -0.084280 -0.564657 -0.124090 -0.461953 0.401444 -0.013508 -0.251233 0.311704 0.535492 -0.116621 -0.290214 -0.801577 0.589234 -0.323317 0.498290 -0.126377 -0.494710 -0.283008 -0.563789 -0.246801 0.067998 0.905159 0.471526 0.379100 0.198209 0.104741 0.054993 -0.407645 -0.090281 -0.476992 0.160829 -0.153632 -0.251164 -0.112940 -0.272860 0.044444 -0.234494 -0.171740 -0.273862 -0.366304 0.007204 -0.201728 -0.181137 -0.025078 -0.431629 0.206537 -0.385291 -0.068332 0.835886
*dt_66 0.657175 0.363170 -0.541133 -0.113212 0.143094 -1.113595 -0.136348 -0.878439 0.529148 -0.623171 1.248501 0.198368 -0.715360 0.638714 -1.320742 0.070708 0.268972 -0.250906 -0.847634 -0.796154 -0.480182 1.100260 1.212501 0.177125 0.855362 0.513332 0.401364 0.351591 -0.378124 0.393143 0.256989 0.956840 0.506372 0.210900 0.625543 0.504567 -0.248867 0.093798 -1.083024 0.506231 -1.138986 0.694775 -0.075320 0.293215 0.577730 -0.177261 0.397034 -0.473961 -0.719859 0.599450
*dt_67 0.950396 0.564267 0.121859 0.099572 -0.294368 -0.003865 -0.069040 -0.701777 0.147037 0.616149 0.005609 -0.593531 -0.564877 0.236273 0.026481 0.320815 0.327339 -0.715948 -0.059668 -0.383900 -0.519952 -0.009396 0.208451 -0.068254 0.007820 0.409997 0.275979 0.055206 -0.363517 -0.913728 -0.029986 0.059750 0.065864 0.175330 -0.371376 0.156418 -0.144962 -0.057192 -0.008834 -0.793334 -0.147292 0.624662 -0.234150 -0.535813 0.302532 -0.300605 0.205472 0.190680 0.063622 0.043824
*dt_68 0.408744 -0.314032 0.471559 -0.270880 -0.958614 -0.344784 0.312239 -1.204757 0.249733 0.018320 1.008896 -0.136891 -0.529483 0.615760 0.103598 0.319064 0.983035 0.157578 -1.179993 1.105272 -1.603412 0.979505 -0.088463 0.880013 0.155276 0.205655 0.857982 0.067312 1.012679 -1.414435 -0.437344 1.096083 0.102368 0.623010 1.297755 -0.303991 0.140825 -0.539922 -0.121168 -1.861313 -0.231098 -0.136247 -0.009716 -0.940399 0.242173 0.211795 0.087363 0.035661 -0.381025 0.157411
*dt_69 0.677298 0.387932 -0.023579 -0.510005 -0.306445 -0.723063 -0.094128 -0.753733 0.277413 0.348304 0.493849 -0.323963 -0.675756 -0.403755 -0.447053 -0.290196 0.565540 -0.294660 -0.098522 -0.154425 -0.101469 -0.299721 0.144475 0.481026 -0.042859 0.245690 0.063714 0.235151 0.193560 -1.178864 -0.632360 -0.315721 -0.113843 0.430289 -0.210423 -0.280768 -0.350695 -0.196047 -0.154646 -0.316159 0.144309 1.329809 -0.107747 -0.438441 0.434450 0.161273 0.830763 0.334599 -0.257265 -0.091630
*dt_70 1.111047 -0.337830 0.486956 0.503734 -0.261899 -0.240435 0.296088 -1.258736 -0.375028 0.279720 -0.366485 -1.238553 -0.742873 -0.433147 0.305026 0.655783 1.403407 0.647388 0.110243 -0.683790 -0.605294 -0.115626 0.775162 1.304994 0.391929 0.574644 0.017574 0.891893 -0.275420 -0.864395 0.021630 -0.446519 0.645618 1.324829 0.387692 1.421910 -0.007582 0.070108 0.036923 -0.318431 -0.227831 0.141901 -0.698287 -0.086976 0.391332 0.007181 -0.177531 0.718377 1.052294 -1.388650
*dt_71 0.474748 0.347781 -0.426993 -0.354194 -0.487480 0.545916 0.385753 -0.908829 0.359624 0.934751 -0.091980 -0.928988 -0.655177 0.995293 -0.712291 0.129339 -0.506340 -0.251518 -0.257485 0.715060 -0.334601 0.559899 0.747593 0.469172 -0.702204 0.008095 -0.054641 0.786988 -0.656691 -0.424788 -0.350720 0.497769 0.039332 -0.539167 0.877121 0.663327 -0.455913 0.041228 -0.359951 -0.589964 -0.169031 0.726637 -0.254203 0.688457 -0.409388 -0.258246 0.387887 0.634645 0.791803 0.562598
*dt_72 0.215089 -0.164373 -0.350702 0.174453 -0.311112 0.078788 0.091749 0.033579 -0.108401 0.162054 -0.263380 0.051503 -0.801638 0.223841 -0.084786 0.509802 -0.080608 -0.318107 -0.148064 0.032205 -0.116378 0.029483 0.487742 0.228308 0.152154 0.153602 0.195963 0.074422 -0.375795 -0.278110 -0.609127 0.056177 -0.251562 -0.202907 0.140852 -0.155428 0.090704 -0.171004 -0.487226 -0.486322 -0.348556 0.182782 0.250346 -0.368344 0.075963 -0.593748 0.169985 -0.355495 0.261310 0.361988
*dt_73 0.445984 0.199532 -0.184150 -0.082748 -0.371073 0.442631 0.340829 0.158253 0.334200 0.103170 -0.068891 -0.236756 -0.377674 0.076817 -0.016544 -0.004827 0.481059 -0.012989 -0.455196 -0.310762 -0.371677 0.208893 0.314055 0.308068 0.110873 -0.169428 -0.011161 -0.163324 0.118066 -0.726188 -0.704837 0.498114 -0.245617 -0.197975 0.156048 -0.042715 -0.017544 0.196162 0.083025 -0.550876 0.118423 0.046107 0.116928 -0.697634 -0.217316 -0.035228 0.034731 -0.331804 -0.021834 0.477511
*dt_74 0.799452 0.022694 -0.447810 0.035607 -0.374976 0.348652 0.483796 -0.396101 0.130502 0.163108 -0.042291 -0.180362 -0.057810 0.489986 -0.012682 0.554141 0.009211 -0.532005 -0.210662 -0.306869 -0.507895 0.043979 0.300239 0.615743 0.520786 0.222634 0.077866 -0.011169 -0.094582 -0.336863 -0.552861 0.230269 -0.192497 0.021930 0.036242 -0.275937 0.012629 -0.347172 -0.540849 -0.035547 -0.284139 -0.137976 0.060759 -0.870373 -0.097139 -0.950189 -0.245207 -0.423118 -0.102893 0.081106
*dt_75 -0.127980 -0.193240 0.036024 0.335405 0.780621 -0.213994 0.372474 -1.541504 0.478821 -0.103023 -0.028510 -0.511294 0.012215 0.001167 0.846566 0.910183 0.417070 0.117397 0.196376 -0.209211 -0.892906 0.440154 0.707950 1.151992 0.316563 0.238190 0.069828 0.167831 0.394159 -0.345236 -0.886953 1.153556 -0.432385 0.019581 0.683864 0.413636 0.015695 -0.269811 -0.993766 -0.347244 -0.630941 -1.185511 0.523152 -1.347430 -0.927308 -1.133382 -0.655418 -0.535296 -0.964560 0.772690
*dt_76 0.181708 0.067179 -0.712076 -0.056887 -0.095535 -0.145293 0.183414 -0.353480 0.046736 0.263526 -0.265532 0.190868 -0.114705 0.187471 -0.467134 -0.079886 -0.034400 -0.541014 -0.190489 -0.268470 0.019822 0.298911 0.275070 0.461463 0.311676 0.130240 -0.203762 0.145360 -0.083881 0.110398 -0.491171 0.061001 -0.108059 -0.226522 -0.001418 -0.255699 0.234121 -0.261193 0.033604 -0.028670 -0.019988 0.256105 0.038651 -0.717370 -0.237798 -0.537116 0.058222 -0.070841 -0.116218 0.155387
*dt_77 0.942832 0.511207 0.677626 0.048622 -0.108789 -0.038924 0.737587 -0.051746 0.620324 0.766002 0.075536 0.447360 -1.124635 -0.837005 0.517288 2.162325 0.079831 -0.479902 -0.099156 -0.928909 -0.103115 0.420609 -0.117602 -0.199086 0.300739 -0.101916 1.121182 -0.243776 -0.657816 -1.031228 -0.360240 0.529724 -0.229235 0.818336 0.716830 0.789550 -0.900020 0.185579 -0.459393 -0.280040 0.169954 -1.190073 0.112957 -1.302961 0.120553 -0.349961 0.423810 0.327037 -0.341284 -0.090902
*dt_78 0.253219 -0.069184 -0.050900 -0.127825 -0.394198 0.443895 -0.252046 0.110106 0.187173 0.118579 -0.093591 -0.160641 -0.599972 0.404734 0.069367 0.540050 0.045139 -0.165064 -0.176415 -0.737344 0.134568 -0.064857 0.918797 0.207386 0.526385 0.314838 0.481397 -0.299194 -0.228942 -0.733265 -0.431913 -0.296034 -0.277149 0.227455 0.178173 -0.626124 -0.436189 -0.420602 -0.168052 -0.082949 -0.584400 0.038472 -0.126313 -0.413443 -0.045355 -0.220054 0.299021 -0.363921 -0.111944 0.277822
*dt_79 -0.690066 0.805098 -1.685903 -0.450266 -0.575402 0.996581 0.978787 -0.432449 0.569820 -0.822249 0.731946 -0.398019 0.015064 1.453875 -0.549739 0.044835 0.094078 0.080124 -1.454307 -1.807335 -1.233168 0.187510 1.300679 1.451295 1.840757 -0.329243 0.756116 1.259402 0.030357 -0.551095 -0.913041 -0.445085 0.097367 -0.543852 0.730902 0.460362 -0.637930 -0.160779 0.190694 -0.003255 -1.131347 0.203319 -0.169122 -0.501023 0.529213 -0.305953 0.856805 -1.694031 -1.068232 1.391219
*dt_80 0.752559 0.974959 -0.381066 -0.221569 -0.479949 0.321270 1.239378 -0.084762 0.175003 0.191543 -0.026211 -0.634854 -0.196790 -0.306199 0.270766 0.445635 0.512036 -0.311688 0.084713 -0.019795 -0.985408 0.104027 0.005718 0.645192 0.992695 0.086315 0.157004 -0.068935 -0.483521 -0.089083 -0.392555 0.124860 -0.497808 -0.039303 -0.215954 0.445681 -0.189428 -0.179386 -0.351821 -0.354104 -0.388432 0.103859 -0.298866 -0.246888 -0.159105 -0.352036 -0.155269 -0.278251 0.681276 0.876252
*dt_81 0.131746 0.236187 -0.616343 -0.075694 -0.348936 0.299574 0.442323 -0.620777 0.510763 -0.080929 -0.276028 0.129013 -0.542845 -0.670631 0.571474 0.430224 0.176348 -0.830423 0.049200 -0.449628 -0.671651 -0.085221 0.256623 0.256442 -0.267125 -0.210471 -0.466430 0.073827 -0.364302 -0.215947 -0.538535 -0.076672 -0.151398 0.200286 0.227521 -0.238382 0.055449 -0.506727 0.212592 -0.597179 -0.117732 0.335790 -0.239303 -0.736887 -0.486730 -0.217378 0.175740 -0.543394 0.078409 -0.104055
*dt_82 2.157599 -2.705708 0.664923 0.061248 -0.757553 0.157948 -1.923330 0.892721 -1.225263 0.494702 1.085039 1.336060 -0.168807 0.156681 2.059964 1.332457 -0.411054 -1.767430 -0.457134 2.045166 0.140197 0.085300 1.912377 1.876011 1.046338 0.723408 0.994739 -0.915691 -3.459097 -1.867610 -0.006977 1.943210 0.056163 -1.202409 -0.330751 -2.673753 -2.154390 0.444699 -2.139042 -2.236251 -1.316445 0.311827 1.971614 -2.451409 -1.289139 -4.608039 0.450355 1.104147 0.512369 -0.337907
*dt_83 -0.076334 -0.254270 -0.204809 -0.181057 -0.276086 -0.063708 -0.298551 -0.942694 -0.171793 -0.348646 0.828863 -0.417417 -1.060155 0.698131 -0.262431 1.503762 -0.129811 -0.751612 0.234589 0.016458 -0.186966 -0.392407 1.012489 1.010705 -0.137530 0.894869 0.308728 0.364422 -0.777496 -1.155313 0.241910 0.051103 0.382437 1.261503 0.343147 0.202274 -0.216932 0.057589 -1.160990 -0.484081 -0.841338 0.302309 0.212301 -0.322387 0.576099 -0.846419 0.293476 -0.143608 -0.316091 -0.140109
*dt_84 0.506138 0.069314 0.029687 -0.366762 0.045439 0.228421 0.136874 -0.675800 1.079550 0.797085 0.811648 -0.883655 -1.102717 0.688964 0.669191 0.318738 0.005541 -0.349231 -0.270874 -0.119348 -1.000720 1.042290 0.738057 0.751469 0.388906 0.123810 0.006865 0.093742 -0.237145 -0.003609 -0.011536 0.769701 -1.239386 -0.186516 0.246711 -0.478738 -0.316417 -0.752958 -0.715879 -0.686967 -1.014452 0.281449 -0.126561 -0.759920 -0.323265 0.249527 -0.145969 -0.456747 -0.167061 0.359171
*dt_85 0.234979 -0.536432 -0.983885 -0.804397 -0.753283 0.918746 -0.467825 -0.103945 0.654068 0.157948 0.077898 -0.939512 -0.096254 0.840631 -0.054228 0.343945 -0.119671 -1.251009 -0.318600 0.015415 -0.508442 0.185975 -0.129808 0.781078 1.072352 1.206237 -0.230169 -1.113102 -1.178035 -0.676420 0.030467 0.153706 -0.124681 1.137627 0.298064 -0.284385 0.756193 -0.120976 -1.097665 -1.981007 -0.369851 -0.593083 0.397474 0.326292 -0.662479 -1.214429 -0.878274 -0.008024 0.480070 1.455188
*dt_86 0.322697 0.229632 -0.981137 0.204980 0.046847 0.593414 0.143734 -0.078277 0.137228 0.533946 -0.030523 0.244259 -0.420631 0.481306 -0.454033 0.562010 -0.503074 -0.976779 -0.482192 -0.538710 -0.252570 0.045856 0.245109 0.384986 -0.045537 0.495570 -0.212226 0.280100 -0.312708 -0.697403 -0.387095 0.229764 -0.477659 -0.219809 -0.055621 -0.199446 0.115380 -0.422462 -0.477158 -0.025097 -0.606311 0.677788 0.066422 -0.679321 -0.349809 -0.378880 0.334612 -0.556289 -0.240410 0.314876
*dt_87 0.786242 -0.783602 -0.555811 -0.080468 0.741653 0.727350 0.924495 -0.686269 0.551951 -0.330941 0.672383 -0.861744 -1.219637 0.778576 0.227377 2.208189 -0.620857 0.136980 0.422160 0.505235 -0.856335 0.106421 1.241423 0.064945 0.519153 0.456301 1.961176 -0.073380 -1.395501 0.410768 -0.039107 -0.157038 -0.159200 -0.460930 0.720951 -0.286103 -0.898114 -0.939274 -0.726886 -0.014885 -1.738442 -0.453154 1.153555 -0.206016 -1.800279 -1.575899 -0.884879 0.444139 0.714546 -0.793394
*dt_88 1.136805 0.246405 -0.986892 0.273718 -0.028953 -0.244943 0.491477 -1.046867 0.546953 1.024160 -0.471447 0.618963 -0.664955 0.672320 0.153079 0.291778 0.375961 -0.397998 0.328868 -0.208058 0.028857 -0.279288 0.869522 0.744303 0.411871 0.570384 -0.537532 0.679814 -0.451384 -0.030923 -0.336006 0.555260 -0.732632 0.581091 0.510029 -0.358340 -0.006835 -0.173950 -0.268607 -0.353445 -0.493971 0.092347 0.599386 -0.438372 -0.151432 -0.227809 -0.223410 0.381721 -0.221032 -0.209353
*dt_89 0.304852 -0.180200 -0.600981 -0.634469 -0.203206 0.274103 -0.046280 -0.545343 0.611964 0.078027 0.036608 -0.277037 0.133183 0.480633 0.076993 0.381164 -0.423314 -0.499629 -0.567774 -0.808912 -0.429853 -0.021802 0.669489 0.211301 0.814176 0.091295 -0.080595 -0.022804 -0.180587 -0.589363 -0.413477 -0.207641 0.149141 -0.860843 0.133173 -0.263012 -0.607003 -0.570392 0.714408 -0.063147 -0.508148 -0.410599 -0.587381 -0.075938 -0.032415 -0.775083 0.433521 -0.649073 -0.642219 0.663624
*dt_90 0.451102 1.563706 1.012500 -0.173903 -0.801281 0.387157 -0.052380 -1.372942 0.516282 0.898179 -0.373765 0.993164 0.104775 0.151190 -0.391159 0.513691 0.375312 -0.488162 0.786691 -1.299188 -0.194364 -0.037354 0.957867 0.120352 1.103532 -0.142834 -0.742788 0.313990 -0.151401 -0.294931 -0.846996 -0.063584 -0.344710 -0.876194 -0.757698 -0.759813 -0.383508 -0.090346 -0.282494 -0.345016 -0.894597 0.394429 -1.196024 0.170442 0.454402 -0.491651 1.289188 -0.043677 -0.387093 0.096272
*dt_91 0.274868 0.146945 -0.517290 -0.958756 -0.612403 -0.007627 0.684533 -0.171567 0.437776 -0.023041 -0.593227 -1.351752 -1.583566 -0.056166 0.316330 0.798255 0.943919 0.131731 0.885023 0.439714 -0.397688 -0.235330 0.947576 0.333022 0.220471 0.094740 0.444186 -0.449920 0.055167 -0.271255 -0.759526 0.273182 -0.468269 0.494967 0.327773 -0.153950 0.149488 -1.156055 -0.707397 -1.096762 -0.280641 -0.023148 -0.599874 -0.706236 -0.094079 -0.105750 -0.469053 -0.671649 0.418542 1.439783
*dt_92 0.277040 0.543233 -0.990679 -0.808787 0.101901 0.305355 0.440171 -1.281990 -0.292862 0.107186 0.193179 0.262998 -0.730015 0.016368 -0.256558 0.486379 0.201398 0.283620 0.268405 -1.506792 -0.236814 0.246488 0.815865 0.754915 0.451734 0.207299 -0.735903 0.381806 0.387677 -0.613562 0.326131 0.623440 -0.814105 0.249626 0.502589 -0.841787 -0.027999 -0.506698 -0.700071 0.760180 -0.615884 -0.576383 -0.520241 -1.192973 0.041059 -0.905365 0.679069 -1.323201 -0.804767 1.499317
*dt_93 0.863731 -1.271288 -1.039790 0.471555 -1.570742 -0.551498 -0.661251 -0.422563 1.146697 1.087981 -1.278080 -0.856735 -0.767932 -0.999376 -0.273808 0.391219 0.816491 -0.529703 -1.081892 0.938602 0.284889 0.124992 0.151088 -0.023950 0.659757 -0.645480 -0.161224 0.444920 -0.211972 -0.265235 -1.443774 0.995152 -1.054942 -0.174670 0.171933 -0.111835 -0.854285 -1.280925 -1.293203 -1.093020 -1.025662 0.869029 -0.815543 -1.171724 0.329096 -0.462629 0.662317 0.331366 0.047797 0.856374
*dt_94 0.173298 1.444317 -0.347789 -0.230577 -0.872200 0.058811 0.947052 -0.774942 1.242450 0.405994 0.042145 -0.143240 -1.198544 -0.312952 0.329799 0.056755 0.086154 -0.234319 0.040290 0.114243 -0.496753 -0.240691 0.802376 0.066859 0.241152 -0.193457 -0.405027 -0.740376 -0.512086 -0.663172 -1.013903 -0.159564 0.273226 -0.017086 0.440874 0.265281 -0.244434 -0.126268 -0.648464 -0.633137 -0.737733 0.346428 -1.155306 -0.299954 -0.485210 0.307635 0.368269 0.052119 0.061833 0.614991
*dt_95 0.234879 0.429591 -0.450134 -0.025473 -0.003887 0.255057 -0.085613 0.006024 0.352170 0.318692 0.389122 -0.379405 -0.717132 0.401700 -0.107491 0.212423 0.000476 0.138005 -0.086157 -0.566581 -0.412544 0.332770 0.449281 0.609746 -0.030594 0.157283 0.339355 -0.096202 -0.433007 -0.636123 -0.260105 0.389901 -0.035822 -0.153243 0.436696 0.076644 0.373537 -0.215905 -0.856273 -0.639636 -0.593294 0.089887 0.359246 -0.019561 -0.335277 -0.180415 0.297488 -0.014603 0.081569 0.598565
*dt_96 0.249905 -0.042933 -0.354196 0.351044 0.195842 -0.503997 -0.072626 0.052879 1.325861 0.766784 0.151250 -0.628186 -0.536546 0.614218 0.717270 0.432334 0.517137 -0.770006 0.018255 0.014326 -0.846052 0.666777 0.523809 1.489008 0.339722 0.163227 0.337984 -0.211613 -1.253076 -1.118342 -0.633534 0.640003 -0.326199 0.471129 0.337590 -0.260924 0.555463 0.147381 -0.117541 -0.696725 0.078631 0.062506 0.684088 0.138120 -0.738812 0.446577 -0.088393 0.338189 0.203918 -0.041420
*dt_97 0.305781 0.217996 -0.039880 -0.163394 0.211656 0.181963 0.089806 -0.363235 0.242376 -0.021148 0.177510 -0.615233 -0.480151 0.141165 0.121227 0.319473 0.032960 -0.405831 -0.217608 -0.434027 -0.323341 0.344751 0.325927 0.449314 0.277276 0.298481 0.231470 0.276627 -0.244286 -0.368820 -0.469290 0.344546 0.089703 -0.377405 -0.043717 0.410914 -0.090648 -0.199853 -0.126356 -0.018005 -0.203427 -0.032290 0.271818 -0.378914 -0.105712 -0.395712 0.229039 -0.116290 0.100103 0.218006
*dt_98 0.265988 -0.142552 -0.516928 -0.484396 -0.759071 0.305637 -0.262992 -0.585924 -0.302931 -0.138482 0.175169 0.230714 -0.316211 0.604970 -1.063060 -0.279229 0.170048 -0.453360 -0.781465 -0.399360 -0.599361 0.264736 0.852349 0.438907 0.520520 -0.096850 0.721812 -0.335307 0.097245 -0.876239 0.027182 0.627038 0.239415 -0.410806 0.564576 -0.385447 0.517822 -0.416006 -0.148319 -0.628241 -0.428343 0.778996 0.075887 -0.078820 -0.204276 -0.281669 0.041160 -0.309633 -0.023312 0.013156
*dt_99 0.309031 -0.151047 0.797987 -0.533970 -0.026653 0.057674 0.975377 -0.576304 0.939219 -0.123090 -0.127476 -0.089456 -0.759303 1.108078 -0.503943 0.585774 0.484360 -0.353304 -0.622947 -0.240326 -0.315289 0.831334 0.353499 0.548388 -0.281670 0.537329 0.554462 -0.445082 0.266767 -1.544965 -0.166403 0.383617 -0.104961 -0.413046 0.026994 -0.201746 0.252759 -0.013087 0.303211 -1.018275 0.043785 0.575687 0.838627 -1.126227 -0.462022 -0.050623 -0.325903 -0.304996 -0.640249 0.616655
*dt_100 0.674502 0.563948 -0.246123 -0.312761 -0.078850 0.450503 0.128163 -0.121736 0.619551 0.144271 0.397473 -0.189183 -0.805999 0.031272 0.653911 0.451837 0.442917 -0.421591 -0.248737 0.305991 -0.314842 -0.114583 0.446895 -0.087996 -0.135954 -0.177244 -0.010001 -0.066252 -0.159267 -0.288138 -0.525067 0.479238 -0.075015 -0.394789 -0.327117 -0.079375 -0.163835 0.248583 0.056618 -0.379811 -0.033219 0.113387 0.226412 -0.575369 -0.553028 -0.249781 -0.294234 0.046729 0.098868 0.032179
*dt_101 0.564446 -0.043519 -1.158421 -0.793173 -0.854245 -0.279493 -0.683377 0.427982 -0.851624 0.078269 -0.873360 0.786340 -0.851219 -0.642572 -1.779423 1.011499 -0.466107 -1.239027 -1.423087 -1.228644 -0.285104 0.130312 1.265574 0.475153 1.843847 1.424603 0.616000 0.378013 0.095070 -0.404166 -0.272444 0.784778 0.538899 -0.305289 0.387563 -0.617485 -0.231653 0.944236 -0.563087 -0.183010 0.439731 1.148619 0.838042 -0.207689 1.124860 -1.493475 0.631689 -0.662924 0.183549 0.197066
*dt_102 0.066853 0.591481 0.123320 0.176164 -0.865103 -0.279238 0.238037 -0.839448 0.163868 0.549128 0.284347 -0.610356 -1.758439 0.622172 0.468569 0.243272 0.887662 0.010919 -0.312156 0.406973 -0.444238 0.218204 0.303067 0.976724 0.294770 0.140961 -0.173791 0.000124 -0.254337 -0.609340 -0.112190 0.445886 -0.490234 0.227583 0.229872 0.255975 0.042069 -0.058864 -0.375570 -0.466574 0.156269 0.077752 0.469886 -0.421294 -0.133787 -0.442283 0.199704 0.482767 1.089723 0.209862
*dt_103 0.634533 0.054891 -0.586954 -0.451286 -0.407357 0.223409 0.236328 -0.748219 0.214434 0.049880 0.209923 -0.138124 -0.094474 0.713515 -0.341133 0.114552 -0.031011 -0.548123 -0.245811 -0.435301 -0.433483 0.405875 0.694461 0.775439 0.628949 0.150215 -0.031595 0.444744 -0.105492 -0.310079 -0.402101 0.252870 -0.448291 -0.138554 -0.108206 -0.053708 0.275280 -0.110189 -0.152421 -0.270150 -0.632227 0.220189 -0.246110 -0.442882 0.220460 -0.156935 0.204554 -0.156238 0.081525 0.068823
*dt_104 0.005417 0.838181 1.347006 0.388459 -0.804134 0.043798 0.152450 -0.535624 -0.124077 0.893223 0.471181 -0.454944 -1.377649 0.599712 0.855650 -0.472667 0.950744 -0.084743 0.363875 -1.274764 -1.045903 0.776478 2.069700 0.658289 0.542950 0.033134 -0.198760 0.520658 -0.540878 -1.501337 -0.674488 0.164788 -0.113474 -0.283230 -0.336320 -0.087990 -0.277647 0.351344 -1.530322 -0.201096 -0.010420 0.445549 -0.163925 0.722892 0.237183 0.198193 0.129716 0.289885 0.723184 0.009003
*dt_105 0.270889 0.112588 -0.013701 -0.122793 -0.122398 -0.123455 0.318303 -0.698537 -0.057707 0.413982 0.080910 -0.118571 -0.299563 0.239346 -0.267271 0.144828 0.233000 -0.251873 0.176189 0.125127 -0.103556 0.068905 0.338457 -0.134933 0.017361 0.038649 -0.035265 0.049727 0.279510 0.047114 -0.209093 0.272291 -0.244496 0.028931 0.070200 -0.091443 0.228370 -0.351385 -0.202203 -0.017290 0.021856 0.330292 0.261329 -0.726967 -0.254341 0.204213 -0.404020 -0.147084 0.261130 -0.026857
*dt_106 0.407253 0.246671 -0.156576 -0.767592 0.132285 -0.379393 1.093186 -1.224105 0.475917 0.219998 1.712357 -0.956222 -0.176842 -0.250138 2.109650 0.804238 0.544438 -1.116082 0.225418 -1.087559 -2.089891 0.726035 -0.227334 2.033358 1.309029 0.773214 -1.005463 -0.623207 -2.073243 -0.858663 0.268815 0.752321 -1.938049 0.912387 -1.148381 -0.062673 -1.449453 -0.502864 -0.777545 -0.391631 -0.217270 -0.045718 0.825252 -1.370593 0.444083 1.324761 -0.220081 0.129725 2.746349 -0.490464
*dt_107 -0.212992 -0.002274 1.257021 0.260389 -0.817042 -0.974923 0.131474 -0.029237 0.763656 0.132106 -1.051464 -0.852061 -1.657533 -0.270444 0.957889 0.132162 0.546603 -0.039910 0.436273 0.484163 -1.295554 0.107396 1.267986 1.535010 0.845997 -0.046848 0.001655 -0.318744 -0.559467 -0.926865 -1.015335 0.577471 -0.748202 0.195897 -0.550389 0.560072 1.166674 -0.328856 0.044837 -1.213684 0.519994 0.283964 0.047210 -1.218770 0.275989 0.391584 -0.605401 0.637301 0.284332 -1.490690
*dt_108 1.456016 0.993706 0.002333 0.022877 -0.318787 0.236757 0.809561 -0.855973 0.357243 0.416599 0.258171 -1.901254 -0.770085 -0.512160 0.592206 0.038541 0.915081 -0.092529 0.067365 0.315746 -1.389338 -0.162736 0.835285 1.561271 0.565105 -0.167120 -0.193883 0.591715 0.031592 -0.508940 -0.475321 0.208538 -0.890707 -0.050218 0.204906 0.204470 0.316422 -0.628722 -0.616518 -0.116358 -0.739207 0.309774 -0.305133 0.344007 -0.332327 0.449366 -0.154993 -0.031910 0.020432 -0.188170
*dt_109 0.726466 0.498935 0.188297 -0.063789 0.755537 -0.010257 0.272127 -0.891335 0.314372 0.266618 0.527996 -0.200702 -0.211866 0.466417 -0.325160 0.431463 -0.005721 -0.585955 0.097540 -0.052570 -0.161001 0.762597 0.366622 0.396857 0.234328 0.217535 0.193112 0.258924 -0.424239 -0.038669 -0.516248 0.732143 -0.082430 -0.410242 0.253331 0.080709 -0.083307 -0.075828 -0.210602 -0.252954 -0.408041 0.208931 0.511283 -0.332206 -0.373842 -0.551732 -0.069631 -0.168761 0.161888 0.629476
*dt_110 0.628816 0.477654 0.067271 1.448221 -0.971435 -0.327358 -0.401642 -0.597417 -0.290843 2.462536 -0.280753 -0.592882 -1.433312 0.953801 -0.263010 -0.430188 1.003579 0.621150 0.059293 -0.092871 -0.275189 -0.434664 0.117360 0.708634 0.623532 0.434889 0.380597 0.446047 -0.689706 -0.001864 -0.829592 0.316332 -0.669187 0.146438 0.380919 -0.740604 0.041302 0.259627 -0.185911 -0.160902 -0.310007 0.251618 0.930931 0.561963 0.399572 0.303733 -0.211840 1.102980 0.782868 -0.020053
*dt_111 0.694046 0.275664 -0.224178 0.414871 -0.975134 0.677682 0.987804 -1.031270 0.591260 0.815712 -0.441857 0.036438 0.163175 1.122989 -1.013701 0.452684 -1.212974 -1.238866 0.169812 1.012057 -0.447471 -0.096885 1.115164 1.186273 0.429848 -0.133441 -0.090273 0.619773 -0.120171 -0.306429 -0.189140 1.063422 -1.172269 -0.384208 -0.374264 -1.353755 -0.493114 0.156279 -0.426255 0.069665 -0.462796 1.349565 0.655816 0.674598 -0.819583 -0.910985 -0.631958 0.063877 -0.050428 0.213939
*dt_112 -0.183412 0.304442 -0.224963 -0.536269 -0.931906 0.235895 -1.155318 -2.080532 0.048074 -0.009479 -0.166301 -1.589123 -0.413443 1.017781 -1.224044 2.592815 0.497976 0.842570 -0.698506 -1.046089 -0.143233 -0.710421 0.369286 0.434305 0.685767 -0.044608 0.985539 1.814798 -1.794760 -1.738228 -0.167236 -0.009210 0.205811 0.186207 0.265696 -0.117074 0.638792 -1.223311 -0.262361 0.134949 -1.239657 0.047167 -0.192399 -0.813714 0.736878 -2.062034 0.177849 -0.159708 -0.105041 0.493718
*dt_113 0.582539 -0.684333 -0.872639 -0.903722 -0.149316 0.132906 -0.342954 -1.035096 -0.434941 1.521758 -0.570271 0.907208 -1.717251 0.212697 -0.168768 -0.276615 -0.092758 -0.213807 -0.877677 -0.624707 0.213168 -0.042049 1.499765 0.651528 -0.353192 -0.030942 -0.554261 -0.588106 0.504436 -1.568424 0.242390 0.998451 0.056814 -0.191851 0.386835 -2.158915 0.964689 -0.639897 -2.048052 -0.205491 0.362410 1.286022 1.790506 -1.591051 -0.739173 0.163610 0.196343 -0.381716 0.829216 0.042957
*dt_114 0.529088 -0.455059 -0.632331 0.814098 -1.801685 0.819035 0.127005 -0.667245 0.522212 -0.196231 0.165981 -1.651987 -0.999318 0.917000 -0.300017 1.160962 0.168015 -0.271160 -0.312542 0.896293 0.612448 -0.186496 1.024741 0.317579 -0.262893 -0.303385 -0.442623 1.378365 -0.862030 0.480763 -1.140952 0.734414 -0.351133 -0.064092 0.383434 0.106858 -0.160941 0.626954 0.461875 -0.580483 -0.672763 -0.257366 -0.328417 -0.573155 0.089627 -2.005083 0.122009 0.294496 -0.028211 0.550655
*dt_115 1.146570 -0.652179 0.044959 -0.228790 0.091795 -0.493230 1.315445 -1.084328 0.645278 0.289857 -0.546117 -0.481871 0.160800 2.147421 -0.708729 -0.640781 0.060600 -0.862787 -1.343269 -0.300554 -0.835900 -0.044821 0.037295 1.697913 1.266508 0.447454 -0.367357 -0.428071 -0.180800 -0.247873 -0.729095 0.334245 -0.412642 -0.604993 0.220353 -0.661237 0.519634 0.638752 -0.272125 0.196167 0.242056 0.579675 1.100448 0.585597 1.049720 -0.437943 -0.759115 -0.394651 -0.128542 0.461739
*dt_116 0.367070 0.145223 0.248781 0.115274 -0.157878 0.644805 0.073857 -0.831177 0.795765 0.438880 -0.065217 0.345273 -0.611179 0.485424 -0.030682 -0.030471 0.565582 -0.075575 -0.184585 -0.394245 -0.091147 -0.133373 0.575403 -0.010420 0.654292 0.130407 0.382223 -0.127046 -0.031991 -0.547678 -0.515380 0.471452 -0.437464 -0.467378 -0.125125 0.011657 0.325645 0.226920 -0.245247 -0.400148 -0.093247 0.182432 1.096210 -0.203208 -0.574164 -0.393904 -0.341738 0.764242 0.823377 -0.033444
*dt_117 0.571881 0.092155 0.063005 -0.521336 -0.494217 0.428117 -0.017147 -0.244213 0.220207 0.247103 -0.194670 -0.548959 -0.492729 0.127441 -0.131196 0.291822 0.293398 0.014687 -0.481703 0.008932 -0.126981 0.125523 0.728900 0.229623 -0.208114 0.128625 -0.168959 -0.061839 -0.055832 -0.264987 -0.614793 0.338085 -0.103156 -0.222605 0.074354 0.018443 -0.269960 0.444291 -0.507458 -0.206307 0.017681 0.513400 0.214218 -0.208675 -0.078844 -0.637941 0.219594 -0.142812 0.373219 0.405117
*dt_118 0.649841 -0.204024 0.133715 -0.234900 -0.035451 0.303856 -0.015015 -0.173320 0.123021 0.149129 0.514871 -0.311066 -0.746259 0.710897 0.182598 -0.306786 0.408886 -0.085386 -0.221722 0.270139 -0.178402 -0.222414 0.158455 0.177040 -0.041278 -0.082593 -0.164007 0.297224 0.130879 -0.624948 -0.354311 0.361877 0.218105 0.169239 0.225603 -0.306770 -0.064387 -0.148591 -0.432573 -0.548720 0.311197 0.055169 0.685825 -0.569226 0.666938 0.145057 0.480636 -0.164452 -0.024512 0.570645
*dt_119 0.091884 0.092496 -0.419130 -0.313275 -0.066421 -0.408853 0.140202 0.127528 1.316821 0.176700 0.747119 -1.355357 -1.625222 -0.455349 0.993382 -0.735354 0.082684 -0.068218 1.365039 -1.013194 -1.717327 0.893389 1.637842 0.975111 0.932233 0.784330 -0.683837 -0.150786 -0.739495 -0.443715 -0.781966 0.806254 -0.433357 -0.423659 -0.466639 0.790519 0.430098 1.068107 -0.704721 -0.464150 0.110308 0.683763 0.811567 0.159613 -0.675437 0.512895 -0.055846 0.403089 -0.003311 1.369659
*dt_120 -0.312332 0.412517 0.062448 -0.109439 -0.857018 -0.193312 -0.408403 -0.180673 -0.002683 0.286306 0.088567 0.564048 -0.497982 1.257716 -1.170170 0.528122 0.018829 -0.388169 -0.610625 -0.981941 0.098206 0.041589 0.846824 0.173162 0.264901 0.531711 0.426635 -0.419471 0.781850 -0.935224 -0.600519 -0.130309 0.544976 -0.503809 0.460327 -0.172027 -0.233358 0.147867 0.085976 -0.547773 -0.116196 0.747888 0.231700 -0.721226 0.158327 -0.553375 0.428199 -0.132207 -0.418287 0.437452
*dt_121 0.735485 1.021884 0.370547 0.254916 -0.054392 0.588991 1.119299 -0.564238 0.560486 -0.067603 -0.375095 0.075977 -0.211020 0.471771 0.206190 -0.139198 0.396980 -0.685550 -0.829395 -0.691553 -0.318079 0.281179 0.147090 0.890943 0.541342 -0.009754 0.145335 0.125369 -0.269274 0.083499 -0.723287 0.380520 -0.261910 -0.385186 -0.413328 0.454104 -0.006349 0.191893 -0.068946 -0.244921 -0.634331 0.036493 0.192765 -0.621129 -0.542241 -0.123647 0.215775 -0.194335 0.132478 -0.098671
*dt_122 0.307302 1.411137 -0.991054 -0.401280 -0.601671 1.449806 0.081421 -0.995826 0.101244 0.826150 -0.231328 -0.950151 -0.319375 -0.211330 -0.288422 0.277358 0.278755 -0.057562 -0.197143 -0.186861 -0.344745 -0.176695 0.236108 1.147485 0.408519 -0.005872 -1.049430 0.603327 -0.101922 -0.241340 -0.793573 0.192014 -0.885109 -0.049379 -0.243063 -0.153733 -0.156723 -0.084406 -0.567844 0.106216 -0.835760 0.834092 -0.729414 -0.339705 -0.517911 0.268857 0.040773 0.124216 0.758138 -0.046188
*dt_123 0.171969 0.250121 -0.629892 -0.241283 -0.576894 -0.067751 0.331015 -0.512153 0.053177 0.084484 -0.030501 -0.090176 -0.275421 0.613703 -0.127781 0.182913 0.062692 -0.122476 0.222251 0.022570 0.093275 0.084550 0.494550 0.229399 0.053559 0.199496 0.126386 0.053779 0.165167 0.099188 -0.602816 0.037002 0.050259 -0.018704 0.213383 -0.285478 -0.225360 0.300393 0.009937 -0.077608 -0.131106 -0.006574 -0.211039 -0.025700 -0.175330 -0.646250 -0.016565 -0.285544 -0.209411 0.449622
*dt_124 0.307666 0.228875 -0.171552 -0.199808 -0.267348 0.225269 0.164278 -0.365929 0.284268 -0.093523 0.089510 -0.214104 -0.346036 0.638510 -0.318145 0.377709 -0.164948 -0.406101 -0.240264 -0.062736 -0.234779 0.005447 0.446610 0.372429 0.165521 0.272271 -0.170217 0.260819 -0.261665 0.014813 -0.559147 0.100498 0.032202 0.000035 -0.058383 0.039024 0.235919 0.076709 -0.386482 -0.225804 -0.155662 0.334173 -0.244902 -0.325960 -0.107590 -0.609479 0.056978 -0.163475 0.000940 0.237450
*dt_125 0.088552 -0.030881 -0.142338 -0.335792 -0.395121 0.309009 0.013062 0.014353 0.384616 0.226845 -0.504904 0.090444 -0.686679 0.508022 0.163498 0.232841 0.013917 -0.379407 -0.717812 -0.573069 -0.154366 -0.021458 0.968082 0.388262 0.267075 0.284743 -0.567591 0.340116 -0.143757 -0.116516 -0.488794 0.161778 -0.506335 -0.401339 -0.071418 -0.095781 -0.431315 0.337607 0.313972 -0.106571 0.399322 0.147726 -0.017659 -0.473639 -0.045261 -0.600036 0.511118 -0.163546 0.150326 0.546140
*dt_126 0.358953 -0.188423 -0.202749 0.275249 -0.040056 -0.401368 1.207403 -1.090716 -0.054732 0.270724 -1.053142 -0.003461 -0.418015 -0.176766 -0.259161 0.805061 0.274773 -0.087479 0.101930 -0.088666 -0.151029 -0.708576 1.205914 0.329015 0.664825 0.010319 0.361444 -0.115574 0.544191 0.156673 -0.783467 -0.088913 0.109432 0.870855 0.665415 -1.057405 0.164693 -0.623390 -0.318073 -0.303855 -0.702231 -0.851937 -0.287356 -1.226656 0.237633 -0.243491 0.214019 -1.153471 -0.086588 0.815341
*dt_127 0.538696 0.231024 -0.437213 -0.360836 -0.385224 -0.050486 0.202476 -0.458311 -0.074331 0.094772 0.296169 -0.125219 -0.643797 -0.050516 -0.235463 0.648520 0.070707 -0.359137 -0.092539 -0.205177 -0.353766 0.330087 0.247956 0.276517 -0.096206 0.247735 0.111232 0.093217 -0.147320 -0.537304 -0.050098 0.022129 -0.196660 -0.266591 -0.190685 0.167365 -0.299202 -0.079624 0.099056 0.022679 -0.022764 0.314957 -0.109329 -0.277179 -0.322716 -0.052142 0.476257 -0.057531 0.318966 0.268172
*dt_128 1.450256 0.734822 -0.688419 -0.407223 -1.490180 1.462776 0.976421 -0.466387 0.486852 -0.781321 -0.865544 -0.817551 1.699562 -0.673981 1.119532 0.191938 0.327436 -1.343032 0.584977 -0.895574 -1.595515 0.551657 0.826527 1.067185 1.073253 0.689781 -1.028259 0.344351 0.156466 -0.041333 -1.173650 -0.103807 -0.730424 0.475237 -0.522593 0.304343 -0.122269 0.138337 0.469939 -1.661428 -1.489716 0.217908 -1.317768 -1.313462 -0.994065 0.030078 -0.398339 -1.589396 -1.284128 0.505176
*dt_129 1.432858 -0.016555 -1.082485 -0.442552 -0.633495 0.462937 -0.130209 -0.372563 0.142453 0.523165 -1.206457 0.310108 -0.229341 -0.096052 -1.441034 0.108991 0.139487 -1.073925 -0.765713 -1.563200 0.666923 -0.364225 0.920681 -0.073908 1.707554 0.712289 -0.367178 -0.466294 -0.362273 -0.791866 -0.382429 -0.777507 0.525052 -0.251649 -0.324202 -0.755565 -0.284452 -0.075372 -0.339333 -1.114127 0.856220 0.160198 0.280244 -1.037188 0.542762 -1.393816 0.376904 0.975108 0.905933 0.386312
*dt_130 0.718419 -0.140648 -0.349097 0.018851 -0.000479 -0.104578 0.155798 -0.802494 0.236686 0.410536 -0.212585 0.054509 -0.051594 0.318844 -0.693445 0.051481 0.278996 -0.372439 -0.287928 -0.349260 -0.043052 0.392155 0.559129 0.413213 0.409546 0.204967 0.069003 0.822815 -0.134479 -0.354559 -0.341429 0.267809 -0.224498 0.006328 0.456492 -0.231871 -0.179275 -0.086473 -0.418907 -0.076738 -0.322869 0.310267 0.134009 -0.461326 0.142181 -0.584880 0.174759 -0.087920 -0.097444 0.170557
*dt_131 0.498192 0.074242 -0.482695 -0.452609 -0.017426 -0.163796 0.295595 -0.896232 0.360622 0.335836 0.550368 0.263161 -0.409311 0.881261 -0.090375 0.622947 -0.034550 -0.382222 0.008613 -0.772500 -0.560215 1.062638 0.496868 0.638595 0.011086 -0.141664 0.540215 0.098910 -0.498731 -0.872053 -0.596608 0.891966 0.031577 -0.707074 0.555639 -0.192674 -0.411105 -0.335567 0.041293 -0.734433 -0.467307 0.210830 0.279149 -0.144584 -0.143884 -0.437764 0.063316 -0.463738 -0.073929 0.454333
*dt_132 0.406795 -0.082307 0.139890 -0.195239 -0.112385 0.149882 0.242479 -0.207781 0.052194 0.024427 -0.115864 -0.215402 -0.428630 -0.143889 -0.278936 -0.019570 0.069626 -0.199052 -0.142111 -0.481665 -0.271693 -0.115646 0.160871 0.223451 0.095278 0.027329 0.072960 -0.029131 -0.011594 -0.356213 -0.492331 0.078537 0.229978 0.021389 -0.135907 -0.023860 0.132852 -0.180695 -0.259778 -0.503864 -0.266176 0.225605 -0.011571 -0.481458 0.170037 -0.114967 0.118471 -0.416995 0.355984 0.063576
*dt_133 0.356837 0.344336 0.352531 -0.294717 1.129580 -0.048121 -0.052843 -0.610019 0.116114 0.942410 0.444693 -0.027203 -0.474472 -0.009429 0.181850 0.479120 0.373674 -0.637631 0.044977 -0.083708 -0.417642 0.074647 0.712062 -0.158948 0.156884 0.900961 -0.540647 0.631661 -0.161220 -0.693564 -0.216361 0.618682 -0.556671 -0.018566 -0.214695 -0.114140 -0.329533 -0.070474 -0.505995 -0.139108 0.572019 0.087245 0.766758 -0.657292 -0.369680 -0.506004 -0.206280 -0.138322 -0.417700 0.469620
*dt_134 -0.126029 -1.876467 -0.665832 0.872978 -1.493385 2.265499 0.451657 -0.286584 -1.900794 -1.874934 1.874594 -0.701632 -2.911005 0.669386 0.310936 1.785385 0.248329 0.865264 0.468332 0.206076 -0.242777 -1.636232 3.004025 0.695903 1.145681 -0.074163 1.468795 3.005744 -1.660705 0.692071 0.477644 0.708443 -0.624334 -0.263327 1.422070 0.888581 -0.676327 -0.480551 -0.266567 0.128404 -3.080404 -0.039444 0.993572 -1.163634 -0.355619 -2.332560 -0.720553 -1.673929 -0.415782 0.803978
*dt_135 0.419403 0.282595 -0.897016 -0.192635 0.150369 0.426543 0.298495 -0.223728 0.628197 0.079876 -0.038606 -0.395196 -0.339783 0.396110 -0.836257 0.185143 -0.083819 -0.615236 -0.154847 -0.763188 0.065028 0.491580 0.173780 0.447552 0.282011 0.542161 -0.092748 0.172212 -0.021164 0.053165 -0.593766 0.108101 0.066438 0.104652 -0.037892 -0.039259 -0.139667 0.082416 0.021039 0.014953 -0.026615 0.533192 -0.020865 -0.099883 -0.121236 -0.024062 0.119696 -0.650386 -0.430799 0.700077
*dt_136 0.112930 -0.136525 -0.769708 -0.285174 -0.334554 0.149258 0.345058 0.066590 0.262023 -0.151142 -0.052503 -0.265885 -0.647288 0.318310 -0.601897 0.301482 -0.304574 -0.264582 -0.239849 0.114493 0.026850 0.186276 0.334753 0.536512 0.189112 -0.098167 0.276458 0.078601 -0.482066 -0.175662 -0.247751 0.266516 -0.112531 0.099243 -0.033952 -0.161563 0.363995 -0.139432 -0.056602 -0.235731 -0.137382 0.637877 0.101050 -0.492199 -0.030026 -0.131290 0.143891 -0.097489 -0.055263 0.072941
*dt_137 0.296953 0.153539 -0.196223 -0.533994 -0.224583 0.638176 0.563981 -1.024314 0.493073 0.229588 0.023235 -0.305365 -0.862756 0.769048 0.227775 0.088064 0.618420 0.400770 0.045570 -0.139670 -0.472213 0.404548 0.685113 0.947043 0.501751 -0.027608 -0.583619 -0.288415 -0.381654 -0.150449 -0.553489 0.222352 -0.711916 -0.071628 0.381652 -0.412415 0.193968 -0.380663 -0.568816 0.080324 -1.069451 0.090887 -0.261511 -0.475024 -0.474042 -0.323581 0.132900 -0.425214 0.725504 0.349393
*dt_138 1.846988 0.473442 -2.245378 0.325301 -2.315900 2.834332 -1.356038 -0.044399 -0.373360 1.231556 -0.684974 0.605927 1.521621 -0.140946 -1.968227 2.552737 -0.441838 -1.282219 0.352466 -0.972435 -1.147710 -0.515489 0.511719 0.352834 1.649868 1.798771 1.177499 0.956561 -0.438606 -0.397493 -0.882893 0.564236 0.365713 -0.336002 1.272585 -1.293795 -1.417451 0.670029 0.008174 -0.136824 -0.658952 -1.689103 -2.709062 1.098545 -0.651310 -2.395156 0.688163 -2.048251 -1.870874 1.901099
*dt_139 -0.177741 0.145864 0.304515 -0.506249 -0.033491 -0.681346 -0.472695 -0.426614 0.153000 0.787061 0.641789 -0.542310 -1.189205 -0.060923 0.586375 0.617984 0.498545 -0.130624 -0.565546 -0.056414 -0.636175 0.478950 0.447460 -0.141271 -0.184782 0.493971 -0.285070 -0.314208 -0.147204 -0.853782 -0.379617 0.714067 -0.890541 0.009236 0.083515 0.709624 0.210317 -0.534992 -0.869548 -0.866856 -1.008831 0.785626 -0.080600 -0.595422 0.582898 -0.353030 0.035344 -0.773373 -0.010477 0.688122
*dt_140 0.855058 2.307116 -0.818748 -0.232153 0.781427 -0.822091 0.080562 -0.478799 -0.355384 0.827647 -0.803620 0.554793 -0.294342 -0.502034 -2.167349 2.072703 0.114224 -1.544464 0.710021 -2.718730 0.470669 0.330704 0.445801 -0.124403 1.717978 0.987886 0.577972 0.379240 0.210845 0.210390 -0.743129 0.035546 0.561880 0.861804 0.223377 -0.864316 -0.027597 -1.029698 -0.174134 0.465371 -0.198600 -0.319739 -0.301437 -1.327744 1.542485 -0.988955 1.117169 -1.118599 -1.053362 1.697908
*dt_141 0.952704 -0.797900 2.172953 0.760774 -0.364344 -0.117109 -0.547154 -1.080570 -0.955152 0.838992 1.210978 -0.790190 -0.867455 -1.055508 1.146194 0.793244 0.010021 -1.073115 -0.252177 0.007664 -0.454267 0.142017 1.225569 -0.261361 2.016568 0.857333 0.990337 0.736664 -0.991846 -1.005962 -0.661431 1.213116 -0.473952 1.040168 0.023638 -0.392715 -0.352546 0.391412 0.498520 -2.332849 -0.024557 -0.971940 -0.493544 -0.714283 0.017875 -1.375964 0.115395 1.002617 0.781159 -1.204281
*dt_142 0.151149 -0.099481 -0.248075 -0.252821 -0.092236 -0.224372 0.206427 -0.159135 0.242045 0.000555 -0.036170 -0.019551 -0.542552 0.329525 0.010428 0.183324 0.219142 -0.239079 -0.027883 -0.355643 -0.605092 0.500516 0.572721 0.491442 0.349426 0.126417 0.190301 -0.296083 -0.015506 -0.762356 -0.859040 0.331596 -0.066362 -0.001440 0.269782 -0.118462 0.084900 -0.083395 -0.572235 -0.952991 -0.325120 0.111374 0.141307 -0.082847 -0.057398 -0.601688 0.124963 -0.700571 0.150403 0.873314
*dt_143 0.546516 -0.775035 -0.044438 -0.639953 -0.220023 0.729748 -0.833840 -0.376406 -0.312232 1.140755 0.664893 -0.117700 -1.559486 0.741375 0.203472 0.871208 0.635746 -0.456221 0.186735 -0.118874 0.030744 0.923834 0.474548 0.956986 -0.859050 0.853142 0.254134 -0.077993 -0.219469 -0.975646 -0.158801 0.214170 -0.419390 -0.592613 0.616657 0.099935 -0.288158 -0.641372 -0.900378 -1.372118 0.093954 0.470574 1.043411 -0.166744 -0.007839 0.116993 0.779272 0.105311 1.289179 -0.494845
*dt_144 1.014216 0.262975 -0.275780 -0.109495 -0.478279 0.044722 0.672363 -0.642908 0.842288 0.043992 -0.250539 -0.308159 -0.254976 -0.330796 -0.043695 0.195942 0.416057 -0.434425 -0.484274 -0.054205 -0.616618 -0.007372 -0.001587 0.340285 0.917920 0.449100 -0.040529 -0.130766 -0.037148 -0.350059 -0.761686 0.336200 0.082278 0.348396 0.312773 -0.043678 -0.182060 0.270667 -0.463259 -0.134111 -0.337598 0.308774 0.159862 -0.381180 0.154891 -0.182798 0.392081 0.092505 -0.317049 0.354085
*dt_145 0.356315 1.177198 -0.867051 -0.135543 -0.930994 0.523845 0.205816 0.686856 -0.166169 0.353770 0.391068 -0.379917 -1.561489 0.712826 -0.143382 0.274252 -0.071595 -0.813024 -0.163042 -0.205261 0.021206 0.229851 0.042592 0.714781 0.237363 0.473467 -0.345133 0.036742 -0.424394 -0.061123 -0.517208 0.401521 -0.646819 -0.114301 -1.007500 -0.085261 0.564298 -0.096237 -0.458453 0.113828 -0.096313 1.179646 0.023042 -0.854725 -0.193737 -0.348970 -0.056264 -1.085449 0.352235 1.059316
*dt_146 0.775654 0.499806 -0.265844 0.298311 0.025289 0.852687 -0.263375 -1.949827 -0.222718 0.619138 0.055475 -1.064756 -0.053614 -0.694679 0.750489 2.481322 0.454182 -0.813266 1.292296 -0.306955 -0.354063 0.281405 0.194397 0.739196 0.671752 0.604930 0.203701 0.888962 -1.058885 -0.213039 -0.285926 0.804274 -0.282824 0.514786 -0.153288 0.100661 -0.918703 -0.277661 -0.364515 -0.925149 -0.266060 -0.840013 0.877383 -0.337509 -0.592440 -1.096968 -0.077067 1.195277 0.865720 -0.988058
*dt_147 0.753300 -0.396296 -0.417218 0.633539 0.154313 -0.404489 -0.072912 -0.037258 0.852625 -0.106940 0.085052 -0.293809 -0.392842 -0.271127 0.296831 0.133202 0.551245 0.002678 0.375117 -0.102797 -0.839387 0.418177 0.738041 0.610536 0.010981 0.442381 -0.315168 0.151556 -0.163624 0.374354 -1.074161 0.144367 -0.300391 0.650320 0.008303 0.029252 0.425662 0.140310 -0.853604 -0.312761 -1.042376 -0.325117 0.052386 -0.257078 -0.326261 -0.399451 0.004918 -0.278121 -0.603319 0.675090
*dt_148 0.007336 0.124455 -0.162459 -0.094257 0.139346 -1.691172 1.060110 -0.339574 1.723016 1.772237 -0.928777 -0.369799 -0.654651 -0.467259 1.028442 -0.806629 1.496796 -0.796133 -0.203596 0.292105 -1.063909 1.096247 1.510573 2.260973 1.679111 0.502331 -0.899245 -0.294785 -1.047938 0.093127 -1.626917 1.265220 -2.265917 -0.035638 -1.055509 0.214134 1.234533 0.444394 -0.800446 -0.336811 -0.007503 0.417492 0.263769 -0.557546 -0.275539 -0.133352 -0.991502 0.195716 -0.053020 0.074775
*dt_149 -0.362815 -0.069956 0.096540 0.521783 -0.289579 -0.059608 0.397664 -0.149068 0.743257 0.794756 0.019451 -0.194079 -0.746418 0.845041 -0.132943 -0.209780 0.741721 0.220310 -0.925148 -0.764996 -1.277647 0.293485 0.852520 0.912358 0.566575 -0.216779 -0.111149 0.221811 -0.522983 -1.246996 -0.836632 0.405783 -0.252175 -0.277167 0.614307 0.449026 0.058294 -0.137517 -0.337701 -0.420943 -0.087875 0.463204 0.443606 -0.295111 -0.272687 0.799386 0.022434 0.774911 0.598346 0.004549
*dt_150 0.264309 0.234288 -0.420569 0.001108 -0.258567 0.088129 0.109379 0.159341 -0.119281 -0.040216 0.535647 -0.285744 -0.824922 0.535821 -0.640082 0.154876 -0.093984 -0.533222 -0.260287 -0.171288 -0.422876 0.187720 0.563396 0.417113 0.223751 0.527374 0.145961 0.160291 0.031422 -0.798186 -0.526526 0.293972 0.250885 -0.357517 -0.122206 0.079318 0.084695 0.106518 -0.053595 -0.316828 -0.188300 0.507298 -0.166866 -0.496003 -0.013199 -0.132531 0.169950 -0.513324 0.134736 0.829851
*dt_151 0.373348 0.039266 -0.207462 0.027234 -0.147033 0.019377 -0.035619 -0.156445 0.354084 0.227777 -0.216856 -0.133182 -0.201006 -0.236596 -0.232898 0.442382 0.332508 -0.348218 -0.356057 -0.035457 -0.028490 -0.056704 0.268309 -0.127115 0.255968 -0.142936 0.200539 -0.252112 -0.006218 -0.415167 -0.488796 -0.054763 0.035391 -0.003224 0.222408 -0.245504 0.054395 -0.240277 -0.094919 -0.448942 -0.199624 0.062566 0.075848 -0.739275 -0.180844 -0.297889 0.242410 0.030836 -0.040134 0.174649
*dt_152 -0.379721 -0.189455 -0.368695 0.114836 0.250752 -0.004776 0.319969 -0.746420 0.205950 0.508656 -0.239626 -0.682372 -0.505856 0.379631 -0.091319 0.142863 -0.568783 -0.383419 -0.490620 -0.037195 -0.252732 -0.012255 0.541669 0.612797 -0.008291 -0.252956 -0.094626 0.347766 -0.370351 -0.731456 -0.712587 0.152198 -0.238936 -0.207442 0.421742 -0.222636 -0.141733 -0.152816 -0.122013 -0.512428 -0.235922 0.382346 0.225044 -0.508793 0.084866 -0.369162 0.527909 0.359881 0.282029 0.329156
*dt_153 -0.526965 -0.507666 -0.205327 1.355233 -0.062100 -0.132551 -0.212532 -0.804319 0.224465 1.319319 1.111473 0.070614 -2.033648 1.080277 0.815142 0.436817 0.289321 -0.607006 -0.589392 -0.667639 -0.478240 0.069454 1.234426 1.226424 -0.381768 0.195671 -0.079086 1.090822 -1.771102 -0.082693 -0.287047 0.952876 -1.244750 0.360598 -0.037679 0.415336 0.586034 -0.129061 -0.381410 -1.358527 -0.495700 0.469492 0.448250 -0.043844 -0.569077 -1.118425 -0.461159 0.552697 0.711569 0.275680
*dt_154 1.470465 -1.004497 1.463282 1.109949 0.736747 0.250049 -1.286901 -0.650960 -2.216908 0.448870 1.190529 -2.504955 -1.003263 0.937519 -0.841067 1.456833 -0.714563 -0.419332 -1.167187 -0.943803 -0.792058 -1.116815 2.707950 1.386840 -0.065028 -0.738697 2.868071 0.418919 0.348645 -4.027348 1.131043 -1.034746 1.736800 1.294526 1.859142 0.486660 -1.486071 0.288358 -1.460349 -2.306567 -0.614290 1.148413 1.949128 0.323376 3.407696 -0.685074 2.718986 1.767559 2.408938 -1.926771
*dt_155 0.286607 0.114020 -0.181952 -0.729677 -0.116557 0.037732 0.306023 -0.463284 0.168407 0.421528 -0.352431 0.247985 -0.415612 0.220099 -0.013729 -0.367583 -0.215428 -0.199412 -0.072209 -0.516884 -0.629468 0.110454 0.028296 0.201260 0.431624 0.114451 -0.100200 -0.193078 0.247549 -0.127818 -0.808998 -0.096153 -0.181005 -0.249902 -0.307177 -0.401633 0.109783 -0.448366 -0.289949 0.058445 -0.257991 0.627927 -0.302580 -0.409124 0.685764 -0.009678 0.405133 -0.502270 0.594404 0.704870
*dt_156 0.036535 1.380898 0.029450 2.029518 -2.411776 1.029841 0.826593 -1.123747 0.056027 0.692213 -0.685692 0.090534 -1.278447 -0.047966 0.747208 1.383778 0.960292 1.455339 -0.681370 -3.752560 0.953455 -2.268062 3.820316 2.003208 3.623139 -0.504536 1.785265 2.500027 -0.519306 -0.862545 0.479723 -0.416477 -1.046621 2.936770 0.421820 1.624406 2.243129 1.794280 1.968669 0.827865 0.058809 0.228796 0.759110 -1.467324 -0.039376 0.540148 0.459089 1.390803 -0.190536 -0.366605
*dt_157 0.649858 -0.912694 -0.523766 0.202321 -0.194510 -0.092759 0.395097 -0.531561 -0.965777 0.470970 0.428367 0.423377 0.052033 0.319175 -1.162872 -0.180903 0.294923 -0.795271 0.406599 -0.164202 -0.662779 0.278141 -0.021328 0.236827 1.005031 1.129085 0.438254 -0.623591 0.221453 -0.998579 -0.366872 0.694093 -0.663567 -0.241058 0.351176 -0.631117 1.319387 -0.246118 -1.245207 -1.046821 -0.474009 0.233555 1.043055 -0.168386 -0.255732 -1.214945 -0.171757 -0.582070 0.242569 0.725375
*dt_158 0.424826 -0.163060 -0.402596 -0.204194 -0.079617 -0.060710 0.121866 -0.464419 0.441234 0.124158 0.219678 -0.085788 -0.193074 0.240868 0.298733 0.043652 0.266772 -0.361680 -0.276331 -0.194194 -0.433043 0.240127 0.563704 0.572811 0.144189 0.152331 -0.275628 -0.183088 -0.188936 -0.395938 -0.566671 0.395557 -0.594443 -0.003539 -0.107563 0.077582 -0.129491 0.260924 -0.101140 -0.216626 -0.132382 0.362252 0.155821 -0.223791 -0.069064 -0.336258 -0.011929 0.070616 0.066205 0.453143
*dt_159 0.320760 0.674426 1.364774 -0.249465 0.152054 0.241770 0.669281 -1.003263 -0.683737 1.195531 0.182834 -2.299156 -2.277825 1.966716 0.745442 -0.646882 0.181815 1.226750 -0.337453 -0.479422 -0.989100 0.614032 1.268249 0.800231 0.409645 -0.863286 1.179126 0.365975 -1.291863 -1.512716 -1.260828 0.854832 0.646184 -0.071790 0.920190 1.188109 0.975325 -0.391743 -0.508072 -1.157451 -1.080217 1.100148 -0.585885 -0.958818 1.672140 1.126839 0.330391 0.281488 1.525740 -0.559101
*dt_160 0.522867 0.091815 -0.459859 -0.402271 -0.030305 0.169098 0.284123 -0.218628 0.480284 0.675206 0.113657 -0.383139 -0.562587 0.639129 -0.338962 -0.183854 0.072153 -0.194544 -0.341873 -0.164532 -0.345814 0.167742 0.314236 0.681374 0.168600 0.182653 0.148488 -0.127982 -0.230588 -0.535556 -0.580966 0.194808 -0.228896 -0.454140 -0.069697 -0.085754 0.336750 0.144201 0.130846 -0.389547 0.092817 0.640571 0.280698 -0.065229 -0.074428 -0.105712 -0.009690 -0.250483 0.290104 0.685603
*dt_161 1.110713 0.477303 -0.545822 -0.162105 -0.284294 0.012970 1.198450 -0.936562 0.907056 1.036803 -0.257553 -0.314237 -0.110202 -0.350415 -0.104548 -0.327592 0.661511 -0.564288 -0.403552 0.425873 -0.648229 -0.001372 0.229532 0.973121 0.186852 -0.118373 -0.554295 -0.263224 -0.223680 -0.896936 -0.773267 0.588885 -0.785671 -0.025473 -0.288117 0.327934 -0.076622 0.112049 0.335987 -0.686079 0.398184 0.950997 -0.269884 -0.559892 -0.442539 0.541117 -0.307242 0.630571 0.454858 0.104547
*dt_162 1.070249 0.053776 0.116857 0.785286 -0.911255 0.331372 -1.111158 -0.510712 -0.588397 1.346737 -0.366675 0.444027 -0.816618 1.532174 0.786261 0.318920 0.821442 0.107770 -0.956299 -0.668735 0.068641 0.102113 0.800906 1.411246 0.556245 0.256683 -0.670274 0.482539 -1.127254 -1.283641 1.390081 1.688363 -0.611780 -0.394525 0.030192 -0.792820 1.381612 1.228045 -0.590642 -0.214060 0.412876 -0.237930 0.499245 -0.432992 0.060594 -0.749611 -0.442368 0.086499 0.691138 0.357106
*dt_163 0.380802 0.235771 -0.181616 -0.232941 -0.282008 0.446419 0.222106 -0.377877 -0.239330 0.325039 -0.002784 -0.028120 -0.684328 0.438050 -0.443239 0.355075 0.013502 -0.518322 -0.668885 -0.529095 0.081070 0.037169 0.349086 -0.234779 0.406117 0.279674 0.056610 0.022559 -0.275220 -0.426489 -0.576418 -0.007012 -0.000163 -0.006748 -0.056308 -0.327970 -0.161669 0.132023 -0.222203 -0.202333 -0.110011 -0.012164 0.127344 -0.729930 0.001384 -0.659996 0.109116 -0.161341 0.382271 0.301257
*dt_164 0.449475 0.444406 -0.294533 0.232150 -0.197657 0.345933 0.420467 -0.139272 0.383197 0.161625 0.168059 0.039812 -0.369845 -0.224656 -0.253356 -0.087554 0.226122 0.061012 -0.388662 -0.122626 0.081005 0.008142 -0.235140 0.487722 -0.126428 0.024779 -0.240093 0.180901 -0.020136 -0.169439 0.102324 0.483301 -0.411961 0.659732 -0.136852 0.272135 0.508349 0.436533 0.175535 0.245372 0.010082 0.690507 0.485344 -0.673341 0.125220 0.167206 -0.265420 -0.289578 -0.239634 -0.216325
*dt_165 0.671480 0.376839 0.073627 -0.006346 -0.400276 0.048912 -0.059835 -0.516367 0.004723 0.479794 -0.206745 -0.219552 -0.750163 0.286258 -0.304704 -0.053067 0.454083 -0.321929 -0.258889 -0.388409 -0.415225 -0.258533 0.282361 0.181177 0.417337 0.384619 0.149288 0.004551 -0.236957 -0.837815 -0.410629 0.366953 -0.089848 -0.090804 0.042679 -0.003477 0.436213 -0.147101 -0.493744 -0.708449 -0.217491 0.451952 0.245683 -0.283359 0.031952 -0.220734 -0.136451 -0.175919 0.126146 0.283842
*dt_166 0.300090 0.015219 -0.405177 -0.110172 -0.455880 0.144328 0.073763 -0.445652 -0.151146 0.241756 0.097848 -0.182791 -0.493220 0.344531 -0.144631 0.253491 0.177266 -0.292380 -0.157622 -0.246641 -0.234585 0.117786 0.301808 0.332865 0.107854 0.055904 0.098109 0.130402 -0.424915 -0.515104 -0.165613 0.188081 0.058928 -0.208166 0.079509 -0.141956 0.168513 -0.221643 -0.218519 -0.243762 -0.125321 0.385242 0.152900 -0.344240 -0.044264 -0.410625 0.001836 -0.138582 0.224381 0.180701
*dt_167 0.556586 -0.137135 0.302726 0.321495 -0.528096 -1.074207 0.177608 -0.742286 1.571521 -0.100582 0.190057 -1.523067 0.493965 1.109866 1.008913 2.075970 0.482323 0.756869 0.652984 -0.170381 -0.733983 -0.522852 2.630782 0.871386 1.027779 0.001214 0.577506 0.760064 -1.708710 -2.481380 -0.352115 0.033210 1.467117 0.960737 -0.098388 2.112983 0.322099 1.935874 0.004429 -0.614147 -0.377069 -0.194224 0.353573 1.130778 0.558106 -0.065899 -0.490094 2.002013 -0.241630 -0.254310
*dt_168 0.137672 0.797642 -0.447741 -0.388518 -0.311208 0.062351 0.559211 -0.751317 0.179272 -0.096409 -0.532141 1.271171 -0.808620 0.579536 -1.406005 0.000473 -0.154590 -0.894820 -0.429935 -1.522415 -0.489953 0.540416 1.510895 0.532216 1.185615 0.095960 0.618287 0.249605 -0.324839 -0.920867 -0.919173 1.428900 0.095886 -1.029564 0.311050 -0.839410 -0.077695 -0.428096 -0.053863 0.120574 -0.225580 1.016543 -0.191811 -0.890801 0.230050 -0.737754 -0.121596 -1.323503 -0.865083 1.251015
*dt_169 0.106503 0.448876 -0.642856 0.121709 -0.763244 0.482700 0.063794 -0.279436 0.620560 -0.094356 0.205040 -0.345129 -0.545925 0.164694 -1.035375 -0.332853 -0.594068 -0.299617 -0.062950 -0.390037 -0.729226 0.198256 0.404079 0.463009 1.046941 0.468235 0.113642 0.106032 0.164699 -0.792670 -0.342215 0.450143 0.259011 -0.064422 0.107707 -0.213536 0.082071 -0.088166 -0.089102 -0.070097 -0.502667 0.180410 -0.278255 -0.232849 -0.464990 -0.426278 0.203689 -0.395876 -0.231672 0.913494
*dt_170 -0.167394 -0.222823 0.217341 0.022795 0.234445 0.068725 0.085049 -0.157828 0.307266 -0.071536 -0.011032 -0.420349 -0.488459 0.335891 0.207024 0.226742 -0.142746 -0.169306 -0.098145 -0.005738 0.152480 0.373483 0.214690 0.286555 0.006189 -0.000052 -0.097889 0.035754 -0.274604 -0.130391 -0.470798 0.511736 -0.025331 0.091343 0.009171 -0.327791 -0.314830 0.037172 -0.189899 -0.241354 -0.098723 0.078737 0.296324 -0.463403 0.080474 -0.492414 0.073190 -0.140647 -0.117919 0.369882
*dt_171 0.405221 -0.569944 0.225607 0.137861 0.389827 -0.766034 0.720971 -0.470276 -0.656769 0.730349 1.370342 -1.521034 -2.369348 0.238148 0.629576 0.139567 0.201401 0.436247 0.590707 -0.518703 -1.237601 0.388246 0.404967 1.279886 -0.168799 1.070711 0.316434 1.250170 -0.204657 -1.037699 -0.489507 0.430555 0.847459 -0.083143 0.531274 1.538067 -0.253898 -1.683821 -1.066317 -1.562628 -1.697083 0.635334 0.321051 -0.050851 0.228579 -0.340270 0.301100 0.713156 0.490050 -1.022966
*dt_172 -0.113169 -1.233843 1.276057 2.080402 -0.027871 -2.745645 -0.100798 -0.243820 2.082381 1.447871 -0.768576 -2.563228 -2.409648 0.464408 -0.546994 0.694752 2.168454 1.465411 -0.158284 0.021133 0.522258 -1.846596 3.206349 -0.638812 0.389184 0.932108 0.002429 0.585854 -0.942860 -3.036500 -0.674458 -0.932352 -0.545814 1.869438 1.025275 2.816798 1.453143 1.486027 1.412876 -1.814597 0.039734 2.683513 0.107136 -1.287106 0.143854 -0.098843 -0.510235 1.453801 -0.056359 0.742879
*dt_173 0.106544 0.317358 0.087627 -0.187772 -0.085871 0.214629 -0.193703 -0.305272 0.420296 0.462086 0.074595 -0.264789 -1.453037 0.292955 0.019241 0.610780 0.252884 -0.035645 -0.280027 0.070063 -0.278366 0.129266 0.695076 -0.094551 0.640323 0.126238 0.399006 0.085863 -0.632564 -0.117845 -0.692284 0.252330 -0.011925 -0.241509 0.120212 0.053688 -0.013847 -0.164073 -0.438853 -0.533139 -0.193529 0.235075 0.139403 -0.361968 -0.031120 -0.749723 0.207846 0.483424 0.424523 0.378982
*dt_174 -0.594650 -1.910073 1.428793 1.887204 -2.765104 -0.113784 -0.509694 -0.324332 1.560402 0.537510 -1.173618 -3.413641 -2.918430 0.646216 0.974298 0.871632 1.656441 0.924738 -0.875281 0.746805 -0.988880 -0.563593 3.091093 0.651962 -0.648797 0.019223 -0.195428 0.196552 -1.776504 -1.935755 -1.069955 0.494767 -0.758543 2.439734 0.936577 2.193253 -0.240709 0.735291 -0.074689 -2.647765 -1.618444 1.092795 -0.414120 0.458537 0.205804 0.834899 0.695176 1.911104 1.089452 0.149637
*dt_175 1.061343 0.052425 -0.624396 -0.192618 -0.815933 0.496744 -1.062848 0.983961 0.554467 0.252314 -0.802307 -0.909551 -0.141356 0.010586 0.806905 1.887035 1.695825 -0.084077 -0.029381 -2.173995 -1.313637 -1.136600 0.293679 0.101877 1.436322 -0.026249 -0.269823 -1.186648 -1.029263 0.121527 -1.855474 -0.693591 -0.541704 0.516111 -0.074011 -1.319922 0.300437 -0.015168 1.001514 -1.072842 0.614544 0.544446 -0.539506 -0.387588 0.261541 0.288187 0.178540 -0.594185 -0.740444 0.744347
*dt_176 0.845281 -0.630150 -0.573610 -0.271041 -0.631853 -0.201845 0.023099 -0.537106 1.326918 -0.066063 0.091601 -0.211622 -0.805396 -0.680102 0.354927 0.031626 -0.112083 0.274576 0.185459 0.315327 -0.067802 0.305877 0.174897 0.073450 0.416844 -0.087033 -0.203965 0.360071 -0.656083 0.050938 -0.259684 -0.014381 -0.293510 0.923634 -0.147070 0.284167 -0.266504 -0.727344 -0.751634 -0.869384 -0.721250 0.076863 0.390493 -0.335861 -0.076888 -0.177883 -0.015411 0.929504 0.738541 0.485403
*dt_177 0.578683 0.200196 -0.277785 -0.170280 -0.076484 0.262734 0.294405 -0.563480 0.051971 0.620612 -0.047858 -0.096026 -0.901234 0.621009 -0.244771 0.288921 -0.050831 -0.615796 -0.516336 -0.541361 -0.148654 0.103467 0.510634 0.272927 0.172271 0.251588 0.209745 -0.009207 -0.283732 -0.917374 -0.338108 0.261280 -0.242060 0.061759 0.276541 -0.379851 0.373022 -0.019905 -0.244766 -0.681485 -0.075007 0.528155 0.190210 -0.572938 -0.133285 -0.120235 0.058395 -0.451516 -0.001393 0.672183
*dt_178 0.178146 -0.132753 0.142974 -0.180355 -0.283106 -0.020667 0.293167 -0.510706 0.244022 -0.276755 0.021774 0.494628 0.058423 0.177093 -0.060584 0.515895 0.215536 -0.315548 0.072615 -0.270936 -0.461248 0.269389 -0.017090 0.177667 0.241678 0.280226 -0.097682 -0.107106 -0.029703 -0.018732 -0.348980 0.219328 -0.109778 -0.000720 0.206951 -0.232914 0.066927 -0.547082 -0.515882 -0.454830 -0.125826 0.017732 0.025947 -0.518734 0.024196 -0.339952 -0.197363 -0.284057 0.183369 0.327277
*dt_179 1.499502 0.275544 1.396253 -0.848595 0.786718 -0.537022 0.700299 -1.982469 2.257966 -1.159045 0.335456 -1.486344 -0.002722 2.258894 0.073063 0.123874 0.983057 -0.083388 -1.187660 0.093624 -0.874767 0.491761 0.818950 1.522369 0.094563 0.053075 -0.317553 -0.287532 -0.145616 -2.073429 0.570684 1.292942 0.074978 -0.636312 -0.677502 0.439693 0.209728 1.003764 -0.643277 -0.197338 0.369270 0.881128 0.679989 -0.093290 -0.220625 -0.256914 -1.761216 0.095736 -0.458609 -0.143771
*dt_180 1.798155 1.627607 1.813401 0.938296 0.753343 -2.354309 -0.119504 -1.447070 -1.433085 0.318386 0.130243 -0.994651 -1.910400 -0.896376 2.642052 1.142122 0.321307 -1.523315 2.639800 0.059661 -0.964478 -0.285732 0.554848 2.063636 1.644001 1.121473 -1.641052 1.213541 -1.670623 0.740798 -0.225626 -0.379092 -1.230980 0.359633 -1.258705 -1.579835 -0.754532 -0.899185 -1.774206 -0.424529 -0.456881 -1.069491 0.117694 -1.927111 2.471977 -1.545753 1.019718 -1.316113 1.031331 -0.803381
*dt_181 0.026239 0.268541 -0.457199 -0.390942 -0.174331 0.340392 -0.113435 -0.908134 0.197696 0.843966 0.730933 -0.746917 -1.118295 -0.139906 0.090020 0.673933 -0.669689 -0.876723 -0.124093 0.252942 0.045830 -0.611421 0.306668 0.476058 0.453259 0.704355 -0.712586 0.433824 -0.302851 -0.568180 0.093689 0.404398 -0.028128 0.855256 0.436757 0.299755 -0.172900 0.130253 -0.429634 -0.817264 0.678134 -0.260030 0.193155 -0.671541 0.698931 -1.187388 0.295406 0.381036 0.422750 0.197068
*dt_182 -0.105427 -0.476407 0.887385 -0.895086 0.444037 0.749706 1.528031 -1.819659 1.873883 -1.064520 0.392577 -0.530087 -0.451396 1.152685 -0.156900 1.522096 -0.681136 0.016203 -0.524704 -0.433419 -0.773956 1.029859 1.500713 1.606518 0.611279 -0.288958 0.422936 -0.135001 -0.482503 -0.251572 -0.263390 1.424036 -0.693776 -0.625431 0.501013 -0.657849 0.229742 0.224169 0.088509 0.662282 -0.674813 0.782740 0.710465 -0.381106 -1.391219 -0.895968 -0.866809 -1.387139 -0.596834 0.538963
*dt_183 0.164477 0.281986 -0.374485 0.084610 -0.283096 -0.132690 0.199485 -0.261277 0.745109 0.618989 -0.152400 -0.020819 -0.090317 0.563484 -0.669515 -0.182131 0.348537 0.058965 -0.562690 -0.770576 -0.389194 0.090921 0.455800 0.475990 0.521421 -0.266088 0.295271 -0.139671 -0.087417 -0.971202 -0.460373 0.304666 -0.358056 -0.314920 0.290654 -0.183634 -0.145146 -0.335177 0.311240 -1.037248 -0.351348 0.507660 0.286072 -0.659327 -0.361051 0.018803 0.108993 0.163959 0.344655 0.463186
*dt_184 -0.158201 -0.138796 -0.057241 0.177939 -0.461595 0.078632 0.080883 -0.285276 0.180865 0.070125 0.074607 -0.342696 -0.602665 0.391736 -0.135586 0.122146 -0.037710 -0.213257 -0.079177 -0.031259 -0.162022 0.300218 0.506160 0.339529 0.139762 -0.164624 0.016588 0.244968 -0.439636 -0.470799 -0.505520 0.236582 0.197263 -0.344428 0.248129 0.025431 -0.191251 -0.089509 0.056364 -0.336993 -0.174650 0.301146 0.067478 -0.021630 -0.101940 -0.473712 0.246396 0.410300 0.188372 0.404671
*dt_185 0.237798 0.190427 -0.413980 0.012923 0.012992 0.128363 0.325954 -0.372422 0.128823 -0.082434 0.575536 -0.524459 -1.168660 1.449863 -0.047133 -0.157973 -0.363048 -0.544604 0.190170 -0.160409 -0.759077 0.451179 1.485713 1.048605 -0.237569 0.327709 -0.353287 0.812426 -0.225104 -0.946602 -0.378836 0.240606 -0.147499 -1.047474 -0.253473 -0.425674 0.099581 -0.251923 0.086086 -0.385633 -0.780467 0.399123 0.550470 -0.568034 -0.783475 0.144950 -0.114377 -0.620088 -0.202992 0.291680
*dt_186 0.658903 0.171258 -0.107105 0.170417 -0.283606 -0.097436 0.112385 -0.820920 0.157549 -0.052706 -0.108007 -0.084144 0.379276 -0.078829 -0.011911 0.161465 0.312619 -0.233464 -0.284246 -0.054943 0.130344 0.314384 0.654995 0.284046 0.522052 -0.085729 0.208527 0.002350 -0.200420 0.025817 0.137387 0.397372 -0.196488 0.309826 0.194217 0.162180 0.128955 0.498507 -0.136161 -0.148792 -0.093627 0.287586 0.306829 -0.069014 -0.320613 -0.025057 -0.505611 0.328487 0.301127 -0.662325
*dt_187 -0.750014 1.340498 -0.190209 0.445305 -0.252720 -0.113076 0.143028 -0.372874 -0.325300 -0.012231 0.020059 -0.864261 -1.442574 0.821080 0.025762 0.180233 -0.265548 -0.456947 0.763487 -0.796854 -0.497697 0.123526 1.968492 1.272790 0.008935 -0.068429 -0.190175 0.056337 -0.328019 -0.830405 -1.472153 0.352926 0.121876 -1.331875 -0.163940 -0.482046 -0.657425 -0.168311 -0.115554 -0.283830 -0.466427 0.594240 -0.335214 0.174817 -0.049864 -0.463218 0.615957 -0.131273 0.556248 1.075808
*dt_188 0.314552 0.094038 -0.257577 -0.308120 -0.162844 0.401893 0.264127 -0.556256 0.042028 -0.116356 0.423779 -0.364813 -0.751808 0.475938 0.005984 0.435360 -0.135756 -0.268442 -0.127172 -0.677338 -0.479950 0.109915 0.770248 0.761119 0.439752 0.410613 0.261301 0.025354 -0.493413 -0.722614 -0.196661 0.530326 0.116163 -0.381811 -0.148016 0.084280 -0.194269 -0.067653 -0.211282 0.064933 -0.627067 -0.003284 -0.002803 -0.516854 -0.219499 -0.712646 -0.183149 -0.584060 0.034425 0.484163
*dt_189 -0.159289 -0.320503 -0.013127 0.695271 0.802520 -0.368661 0.912937 -0.217632 0.354488 0.468845 -0.834498 -0.920600 -1.259936 -0.468227 1.045508 1.845788 0.213920 -0.141555 -0.139351 0.246173 -1.612538 -0.538140 1.039020 1.827203 0.441761 0.557552 -0.903587 -0.442752 -0.866523 -1.101929 -1.386566 0.806403 -0.256564 0.346553 -0.279151 0.355666 0.396231 0.926905 -0.706247 -0.597722 -0.032475 0.958625 0.458214 -0.471919 0.371355 0.238312 -0.704922 -0.291223 -0.040180 -0.471370
*dt_190 0.554345 1.190623 0.995259 0.386813 0.963367 0.099324 0.376864 -0.703792 0.320956 1.000106 1.284492 -0.860752 -0.899300 0.410904 0.429354 0.247889 0.686410 0.703076 -0.332701 -0.044135 -0.998815 0.357174 0.671848 1.570313 0.575124 -0.596347 0.067015 0.133218 -0.798049 -1.393388 0.042886 1.555116 0.036688 -0.302305 0.829832 0.343210 0.489691 0.460495 -0.728157 -0.688633 -0.117374 0.138362 1.015037 -0.393745 0.481514 1.083016 0.276817 -0.045777 1.174374 -0.319434
*dt_191 0.586715 1.433962 0.508296 0.212668 -0.197662 -0.244479 0.134538 -1.470999 -0.355888 1.233785 0.684774 0.874360 -0.278936 -1.072991 -1.253450 -0.916168 1.177248 -0.202637 -0.107086 -0.255218 -0.441303 0.519217 0.966999 0.575256 1.466005 0.039235 0.380732 0.704773 0.686930 -1.067443 -0.664837 0.542965 0.682750 -0.776653 -0.066830 0.003096 0.001840 0.457278 -0.655739 -0.037105 -0.180692 1.519059 0.374011 -0.894833 0.556577 0.001034 1.093478 0.411059 0.358721 -0.131186
*dt_192 0.649734 0.724584 0.600995 -0.115343 -0.558826 0.566787 -0.418551 -0.282770 1.033961 -0.888198 -0.052583 -0.265834 -0.835712 -0.429417 -0.255226 0.884312 0.218555 -0.152588 0.229950 -0.302846 -1.112159 -0.327067 1.130075 0.232663 -0.421424 -0.142656 -0.055796 0.637021 -0.444586 -0.034200 -1.318975 0.416987 0.535264 -0.845800 0.311382 -0.048970 -0.820795 0.172653 -0.532808 -0.450300 -0.579741 0.249110 -0.271512 -0.133809 -0.888286 -0.786995 -0.125333 0.295791 -0.238078 -0.242077
*dt_193 0.955459 0.284775 -0.163379 0.130891 -0.874886 0.287801 0.800517 -1.512864 -0.326598 -0.531099 0.382100 -1.735058 0.651686 0.206407 0.066205 -0.795430 1.756169 -0.325371 -0.868335 0.070724 -0.827445 -0.405680 -0.214862 -0.685291 0.926100 -0.663707 -0.280275 1.230121 0.905684 -0.990657 -1.361653 0.892640 -0.039226 -0.118392 0.762304 1.811470 -1.210763 -0.442196 -0.507732 -1.220712 -0.766332 1.122362 -0.591291 -1.228730 1.735489 0.773871 -0.133342 -0.128641 -0.219876 1.029203
*dt_194 0.703454 0.772250 -0.509942 -0.172667 -0.205452 0.221104 -0.472630 -0.876837 0.176933 0.668997 -0.440919 -0.308780 -0.306526 -0.142453 -1.188626 0.903062 -0.085191 -0.536985 -0.236957 -0.618026 -0.543682 0.100459 -0.194232 0.842740 1.019684 0.457851 0.575694 0.278065 -0.682089 -0.322599 0.279161 0.116099 -0.348763 -0.053637 0.097936 -0.449330 0.667929 -0.512984 0.056211 -0.462859 -0.664620 0.684604 0.013690 -0.236902 -0.488932 -0.568840 0.015470 -0.784772 0.157199 0.464260
*dt_195 -0.446072 -1.153755 -0.021220 -0.529312 -0.310016 -0.365293 0.679506 -1.302770 0.106043 0.964307 0.440018 -0.178042 -0.157766 0.572376 0.167964 0.819370 0.658265 0.207439 -0.820606 -0.578665 -0.545147 0.542653 0.079034 1.042317 0.173229 -0.034120 0.450614 -0.775280 -0.218269 -0.708630 -0.234257 1.307200 -1.377694 0.369549 1.066661 -0.083177 -0.121978 0.476498 -0.035320 -0.512450 0.228434 -0.475110 1.146391 -0.448459 0.096391 -0.105423 -0.101720 -0.673236 0.919671 -0.016196
*dt_196 0.358685 0.052070 0.548954 -0.432499 0.340534 -0.212761 -0.022172 -0.656236 -0.130645 0.442723 -0.320162 0.487803 -0.173460 -0.052969 -0.428872 0.679449 0.265259 -0.911715 -0.488864 -0.633886 -0.895415 0.404512 0.858475 -0.194824 0.328146 0.494861 0.321966 -0.538616 0.187656 -1.234980 -1.108048 0.349953 0.609395 -0.932795 0.731803 -0.061579 -0.782710 0.019780 -0.406810 -1.279449 0.381914 0.875266 0.780009 -0.692088 0.449253 -0.698628 0.829635 -0.393990 0.392339 0.343109
*dt_197 0.201968 0.003154 -0.334353 -0.535324 0.159801 -0.138981 0.341043 -0.168224 0.534374 -0.204683 0.023128 -0.453669 -0.409796 0.464418 -0.191719 0.591922 -0.193603 -0.512844 -0.412112 -0.541884 -0.395889 0.594727 0.341686 0.779145 0.157753 0.500170 0.031212 0.016074 -0.073682 -0.619782 -0.150782 0.092506 -0.276466 -0.104759 0.125314 0.397019 0.137159 0.199218 -0.170115 -0.583208 0.018184 0.338338 0.087230 -0.188368 -0.265502 -0.726921 0.149421 -0.604840 0.048136 1.039902
*dt_198 0.369024 -0.083512 -0.089923 -0.057260 -0.035654 0.178301 0.260367 -0.034659 0.163263 -0.398087 0.147928 -0.301788 -0.393052 0.070149 -0.104045 -0.076538 0.037170 -0.079360 0.014725 -0.261132 -0.451353 0.273503 0.207748 0.172980 0.269347 0.094897 0.159987 -0.191267 0.080876 -0.454585 -0.099283 0.117069 0.138592 -0.039986 -0.128813 0.049456 0.107540 -0.001269 -0.027658 -0.321428 -0.279174 0.466674 0.052913 -0.271614 0.108865 0.318261 0.119824 -0.297916 -0.037232 0.276453
*dt_199 1.116841 1.682324 0.846381 -0.822294 0.430524 0.023270 0.791475 0.010095 2.381876 0.754090 -0.136205 -1.037995 -1.896740 0.919579 1.400251 1.558476 0.047985 -0.555365 -1.409257 0.319671 -0.097643 -0.384001 0.503212 2.266045 -0.387453 0.332694 0.996886 -1.351151 -1.302514 -0.094549 0.311657 0.951362 -2.177906 0.766233 0.461305 -0.459385 0.265658 0.340467 -0.084392 -0.923805 -1.000081 0.733594 0.669170 -0.149136 -2.000292 0.923283 0.003222 1.088848 2.075946 -1.147702
*dt_200 -1.144641 0.682902 -0.937514 -0.694844 -1.595986 0.669248 -0.622689 0.031884 -1.047167 -0.814207 -0.330928 -0.226291 -0.474700 0.636119 -0.924113 0.551342 -1.215781 0.366312 -0.406785 -1.608319 -1.166937 -0.408638 1.207176 0.815008 0.617477 0.494466 0.831625 -0.092817 0.226282 -1.433492 -0.472662 0.761577 1.005435 0.526688 0.967116 -0.761123 0.349063 1.301220 -2.154335 -0.176949 -0.603926 0.177289 -0.264927 -0.273374 1.277792 -0.209765 1.040828 -0.869865 0.628781 2.197015
*dt_201 0.326999 0.820087 -0.198067 -0.035029 -0.607849 0.642686 0.588936 -0.765117 0.709723 0.771866 0.321239 -0.778417 -0.845595 -0.672597 0.836456 0.059107 0.127541 -0.110797 0.431613 0.153656 -0.703061 0.485822 0.438281 0.258715 0.861913 0.700904 0.599887 1.017777 -1.145468 -0.095814 -0.862968 0.449191 0.095274 0.396780 -0.204135 0.603346 -0.498664 0.506133 -1.732094 -0.936777 -1.081910 -0.140710 0.352729 -0.230196 0.143689 -0.350295 0.112795 0.124165 0.462658 -0.045890
*dt_202 0.835768 0.332838 -0.166328 -0.107213 -0.413433 0.346899 0.366649 -0.264300 -0.087815 -0.124535 0.012948 -0.570602 0.035613 0.149747 -0.314963 0.312537 0.291749 -0.873815 -0.531232 0.163486 -0.276909 0.177524 0.210324 0.083766 0.347621 -0.030530 0.392804 0.156065 0.028420 0.019222 -0.489589 0.706053 -0.393200 -0.417686 0.060270 0.085086 0.616518 -0.186704 -0.240028 0.145006 -0.136098 0.363530 -0.050220 -0.519520 -0.483603 -0.271978 -0.306415 -0.172155 -0.142351 0.120638
*dt_203 1.103900 -0.488346 -0.284211 -0.644868 -0.640754 -0.143418 -0.183316 -0.088823 0.341065 -0.039802 0.098781 0.032181 -0.425064 -0.414966 -0.368010 0.192669 0.696439 -0.543754 -0.220750 -0.501209 -1.282140 0.465645 0.147951 -0.343795 0.570414 0.351118 0.727042 -0.255289 -0.074331 -0.344129 -0.649043 0.371302 -0.227854 -0.047065 0.218072 -0.419697 -0.218234 -0.466417 -0.805189 -0.944724 -0.303527 -0.154645 0.207445 -0.407006 -0.027316 -0.281970 0.044819 -0.055266 -0.110274 0.174584
*dt_204 -0.016782 -0.358670 -0.595044 -0.723257 -0.598545 0.318394 -0.181237 -0.138472 0.360285 1.128215 0.477404 -0.627292 -0.415787 0.404768 -0.411936 1.145920 -0.033851 -0.432619 -0.040172 -0.405304 -0.569446 0.860804 0.136363 -0.246278 -0.135116 0.371560 1.178889 0.947128 -0.211268 -0.454370 0.210658 0.388221 -0.229790 -1.097690 -0.765643 0.888995 -1.224022 -0.530184 -0.970703 -0.017863 -0.465971 0.259124 0.591213 -0.168615 -0.204031 -0.367827 -0.218568 -0.367779 0.899788 0.024518
*dt_205 0.684820 -0.142826 -0.092759 -0.382714 -0.046630 -0.080679 -0.010458 -0.400078 0.069031 0.368732 0.030546 0.116671 -0.219549 0.134197 -0.567658 0.541334 0.223082 -0.435747 -0.465322 -0.493840 -0.113592 0.159056 0.257473 0.128888 0.321378 0.240429 0.388782 -0.112309 0.193007 -0.697839 -0.539652 0.139361 0.071093 0.054466 0.398748 -0.214780 -0.098497 -0.298915 -0.022344 -0.553885 -0.350085 0.269983 0.019758 -0.798592 -0.007734 -0.353416 0.233751 -0.211651 -0.053905 0.033255
